digraph Tree {
node [shape=box, style="rounded", color="black", fontname="helvetica"] ;
edge [fontname="helvetica"] ;
0 [label="weight_loss <= 0.5\nentropy = 5.3\nsamples = 2065\nvalue = [78, 71, 89, 97, 78, 79, 75, 71, 96, 86, 84, 64\n89, 90, 77, 95, 77, 83, 89, 55, 79, 66, 79, 72\n79, 71, 82, 86, 84, 74, 86, 84, 102, 87, 68, 78\n85, 72, 100, 68, 71]"] ;
1 [label="dizziness <= 0.5\nentropy = 5.2\nsamples = 1860\nvalue = [78, 71, 89, 97, 78, 79, 75, 71, 96, 86, 84, 64\n4, 90, 77, 95, 77, 83, 89, 55, 79, 66, 79, 72\n0, 71, 82, 86, 1, 74, 86, 84, 102, 87, 68, 78\n1, 72, 100, 68, 71]"] ;
0 -> 1 [labeldistance=2.5, labelangle=45, headlabel="True"] ;
2 [label="chills <= 0.5\nentropy = 5.1\nsamples = 1731\nvalue = [78, 71, 89, 97, 78, 79, 75, 2, 96, 86, 84, 64\n4, 90, 77, 95, 77, 83, 89, 55, 79, 66, 79, 8\n0, 71, 4, 86, 1, 74, 86, 84, 102, 87, 68, 78\n1, 72, 100, 68, 71]"] ;
1 -> 2 ;
3 [label="dark_urine <= 0.5\nentropy = 4.9\nsamples = 1361\nvalue = [72, 65, 83, 91, 6, 72, 73, 2, 92, 80, 3, 1, 4\n89, 74, 91, 75, 75, 79, 55, 72, 60, 77, 8, 0\n66, 4, 77, 1, 5, 84, 80, 95, 84, 0, 74, 0, 0\n95, 62, 66]"] ;
2 -> 3 ;
4 [label="itching <= 0.5\nentropy = 4.7\nsamples = 1195\nvalue = [72, 65, 83, 91, 6, 72, 73, 2, 92, 80, 3, 1, 4\n89, 74, 91, 75, 75, 79, 4, 72, 3, 1, 8, 0, 66\n4, 77, 0, 5, 84, 80, 95, 84, 0, 74, 0, 0, 95\n62, 2]"] ;
3 -> 4 ;
5 [label="fatigue <= 0.5\nentropy = 4.5\nsamples = 993\nvalue = [72, 65, 83, 91, 6, 72, 73, 2, 6, 3, 3, 1, 4\n89, 0, 5, 75, 75, 79, 0, 72, 3, 1, 8, 0, 66\n4, 77, 0, 5, 84, 80, 95, 84, 0, 74, 0, 0, 95\n62, 2]"] ;
4 -> 5 ;
6 [label="irritability <= 0.5\nentropy = 4.2\nsamples = 816\nvalue = [72, 65, 83, 91, 6, 72, 12, 2, 0, 3, 0, 0, 0\n89, 0, 5, 75, 75, 79, 0, 3, 0, 0, 8, 0, 7, 0\n77, 0, 5, 84, 80, 95, 84, 0, 74, 0, 0, 95, 6\n2]"] ;
5 -> 6 ;
7 [label="vomiting <= 0.5\nentropy = 4.1\nsamples = 767\nvalue = [72, 65, 83, 91, 6, 72, 12, 2, 0, 3, 0, 0, 0\n89, 0, 5, 75, 75, 79, 0, 3, 0, 0, 8, 0, 0, 0\n77, 0, 5, 1, 80, 95, 84, 0, 74, 0, 0, 95, 6\n2]"] ;
6 -> 7 ;
8 [label="irritation_in_anus <= 0.5\nentropy = 3.6\nsamples = 437\nvalue = [5, 65, 83, 7, 6, 72, 12, 2, 0, 0, 0, 0, 0\n89, 0, 5, 2, 10, 6, 0, 3, 0, 0, 8, 0, 0, 0\n77, 0, 0, 1, 80, 6, 3, 0, 74, 0, 0, 95, 6, 0]"] ;
7 -> 8 ;
9 [label="family_history <= 0.5\nentropy = 3.5\nsamples = 395\nvalue = [5, 65, 83, 7, 6, 72, 12, 2, 0, 0, 0, 0, 0, 7\n0, 5, 2, 10, 6, 0, 3, 0, 0, 8, 0, 0, 0, 77\n0, 0, 1, 80, 6, 3, 0, 74, 0, 0, 95, 6, 0]"] ;
8 -> 9 ;
10 [label="high_fever <= 0.5\nentropy = 3.4\nsamples = 388\nvalue = [5, 65, 83, 7, 6, 72, 0, 2, 0, 0, 0, 0, 0, 7\n0, 5, 2, 10, 6, 0, 0, 0, 0, 8, 0, 0, 0, 77\n0, 0, 1, 80, 6, 3, 0, 74, 0, 0, 95, 6, 0]"] ;
9 -> 10 ;
11 [label="stiff_neck <= 0.5\nentropy = 3.3\nsamples = 312\nvalue = [5, 1, 83, 7, 6, 72, 0, 2, 0, 0, 0, 0, 0, 7\n0, 5, 2, 10, 6, 0, 0, 0, 0, 8, 0, 0, 0, 15\n0, 0, 1, 80, 6, 3, 0, 74, 0, 0, 95, 6, 0]"] ;
10 -> 11 ;
12 [label="scurring <= 0.5\nentropy = 3.1\nsamples = 267\nvalue = [5, 1, 83, 7, 6, 3, 0, 2, 0, 0, 0, 0, 0, 7\n0, 5, 2, 10, 6, 0, 0, 0, 0, 8, 0, 0, 0, 15\n0, 0, 0, 80, 6, 3, 0, 74, 0, 0, 95, 6, 0]"] ;
11 -> 12 ;
13 [label="bladder_discomfort <= 0.5\nentropy = 3.1\nsamples = 224\nvalue = [5, 1, 8, 7, 6, 3, 0, 2, 0, 0, 0, 0, 0, 7\n0, 5, 2, 10, 6, 0, 0, 0, 0, 8, 0, 0, 0, 15\n0, 0, 0, 80, 6, 3, 0, 74, 0, 0, 95, 6, 0]"] ;
12 -> 13 ;
14 [label="hip_joint_pain <= 0.5\nentropy = 3.2\nsamples = 172\nvalue = [5, 1, 8, 7, 6, 3, 0, 2, 0, 0, 0, 0, 0, 7\n0, 5, 2, 10, 6, 0, 0, 0, 0, 8, 0, 0, 0, 15\n0, 0, 0, 80, 6, 3, 0, 74, 0, 0, 9, 6, 0]"] ;
13 -> 14 ;
15 [label="chest_pain <= 0.5\nentropy = 3.4\nsamples = 122\nvalue = [5, 1, 8, 7, 6, 3, 0, 2, 0, 0, 0, 0, 0, 7\n0, 5, 2, 10, 6, 0, 0, 0, 0, 8, 0, 0, 0, 15\n0, 0, 0, 3, 6, 3, 0, 74, 0, 0, 9, 6, 0]"] ;
14 -> 15 ;
16 [label="nodal_skin_eruptions <= 0.5\nentropy = 3.1\nsamples = 110\nvalue = [5, 1, 8, 7, 6, 3, 0, 2, 0, 0, 0, 0, 0, 7\n0, 5, 0, 10, 0, 0, 0, 0, 0, 0, 0, 0, 0, 15\n0, 0, 0, 3, 6, 3, 0, 74, 0, 0, 9, 6, 0]"] ;
15 -> 16 ;
17 [label="blackheads <= 0.5\nentropy = 3.1\nsamples = 103\nvalue = [5, 1, 8, 7, 6, 3, 0, 2, 0, 0, 0, 0, 0, 7\n0, 0, 0, 10, 0, 0, 0, 0, 0, 0, 0, 0, 0, 15\n0, 0, 0, 3, 6, 3, 0, 67, 0, 0, 9, 6, 0]"] ;
16 -> 17 ;
18 [label="silver_like_dusting <= 0.5\nentropy = 3.0\nsamples = 97\nvalue = [5, 1, 0, 7, 6, 3, 0, 2, 0, 0, 0, 0, 0, 7\n0, 0, 0, 10, 0, 0, 0, 0, 0, 0, 0, 0, 0, 15\n0, 0, 0, 3, 6, 3, 0, 67, 0, 0, 9, 6, 0]"] ;
17 -> 18 ;
19 [label="inflammatory_nails <= 0.5\nentropy = 3.6\nsamples = 54\nvalue = [5, 1, 0, 7, 6, 3, 0, 2, 0, 0, 0, 0, 0, 7\n0, 0, 0, 10, 0, 0, 0, 0, 0, 0, 0, 0, 0, 15\n0, 0, 0, 3, 6, 3, 0, 2, 0, 0, 9, 6, 0]"] ;
18 -> 19 ;
20 [label="dehydration <= 0.5\nentropy = 3.6\nsamples = 52\nvalue = [5, 1, 0, 7, 6, 3, 0, 2, 0, 0, 0, 0, 0, 7\n0, 0, 0, 10, 0, 0, 0, 0, 0, 0, 0, 0, 0, 15\n0, 0, 0, 3, 6, 3, 0, 0, 0, 0, 9, 6, 0]"] ;
19 -> 20 ;
21 [label="yellowish_skin <= 0.5\nentropy = 3.4\nsamples = 47\nvalue = [5, 1, 0, 7, 6, 3, 0, 2, 0, 0, 0, 0, 0, 7\n0, 0, 0, 0, 0, 0, 0, 0, 0, 0, 0, 0, 0, 15\n0, 0, 0, 3, 6, 3, 0, 0, 0, 0, 9, 6, 0]"] ;
20 -> 21 ;
22 [label="painful_walking <= 0.5\nentropy = 3.3\nsamples = 43\nvalue = [5, 1, 0, 0, 6, 3, 0, 2, 0, 0, 0, 0, 0, 7\n0, 0, 0, 0, 0, 0, 0, 0, 0, 0, 0, 0, 0, 15\n0, 0, 0, 3, 6, 3, 0, 0, 0, 0, 9, 6, 0]"] ;
21 -> 22 ;
23 [label="joint_pain <= 0.5\nentropy = 3.0\nsamples = 38\nvalue = [5, 1, 0, 0, 6, 0, 0, 2, 0, 0, 0, 0, 0, 7\n0, 0, 0, 0, 0, 0, 0, 0, 0, 0, 0, 0, 0, 15\n0, 0, 0, 0, 6, 3, 0, 0, 0, 0, 9, 6, 0]"] ;
22 -> 23 ;
24 [label="spinning_movements <= 0.5\nentropy = 2.5\nsamples = 20\nvalue = [3, 0, 0, 0, 2, 0, 0, 1, 0, 0, 0, 0, 0, 1\n0, 0, 0, 0, 0, 0, 0, 0, 0, 0, 0, 0, 0, 11\n0, 0, 0, 0, 4, 1, 0, 0, 0, 0, 3, 0, 0]"] ;
23 -> 24 ;
25 [label="shivering <= 0.5\nentropy = 2.2\nsamples = 18\nvalue = [0, 0, 0, 0, 2, 0, 0, 1, 0, 0, 0, 0, 0, 1\n0, 0, 0, 0, 0, 0, 0, 0, 0, 0, 0, 0, 0, 11\n0, 0, 0, 0, 4, 1, 0, 0, 0, 0, 3, 0, 0]"] ;
24 -> 25 ;
26 [label="blister <= 0.5\nentropy = 1.9\nsamples = 12\nvalue = [0, 0, 0, 0, 0, 0, 0, 0, 0, 0, 0, 0, 0, 1\n0, 0, 0, 0, 0, 0, 0, 0, 0, 0, 0, 0, 0, 8\n0, 0, 0, 0, 4, 1, 0, 0, 0, 0, 2, 0, 0]"] ;
25 -> 26 ;
27 [label="continuous_feel_of_urine <= 0.5\nentropy = 1.8\nsamples = 5\nvalue = [0, 0, 0, 0, 0, 0, 0, 0, 0, 0, 0, 0, 0, 1\n0, 0, 0, 0, 0, 0, 0, 0, 0, 0, 0, 0, 0, 0\n0, 0, 0, 0, 4, 1, 0, 0, 0, 0, 2, 0, 0]"] ;
26 -> 27 ;
28 [label="burning_micturition <= 0.5\nentropy = 1.3\nsamples = 4\nvalue = [0, 0, 0, 0, 0, 0, 0, 0, 0, 0, 0, 0, 0, 1\n0, 0, 0, 0, 0, 0, 0, 0, 0, 0, 0, 0, 0, 0\n0, 0, 0, 0, 4, 1, 0, 0, 0, 0, 0, 0, 0]"] ;
27 -> 28 ;
29 [label="entropy = 0.0\nsamples = 1\nvalue = [0, 0, 0, 0, 0, 0, 0, 0, 0, 0, 0, 0, 0, 0\n0, 0, 0, 0, 0, 0, 0, 0, 0, 0, 0, 0, 0, 0\n0, 0, 0, 0, 3, 0, 0, 0, 0, 0, 0, 0, 0]"] ;
28 -> 29 ;
30 [label="passage_of_gases <= 0.5\nentropy = 1.6\nsamples = 3\nvalue = [0, 0, 0, 0, 0, 0, 0, 0, 0, 0, 0, 0, 0, 1\n0, 0, 0, 0, 0, 0, 0, 0, 0, 0, 0, 0, 0, 0\n0, 0, 0, 0, 1, 1, 0, 0, 0, 0, 0, 0, 0]"] ;
28 -> 30 ;
31 [label="headache <= 0.5\nentropy = 1.0\nsamples = 2\nvalue = [0, 0, 0, 0, 0, 0, 0, 0, 0, 0, 0, 0, 0, 1\n0, 0, 0, 0, 0, 0, 0, 0, 0, 0, 0, 0, 0, 0\n0, 0, 0, 0, 1, 0, 0, 0, 0, 0, 0, 0, 0]"] ;
30 -> 31 ;
32 [label="entropy = 0.0\nsamples = 1\nvalue = [0, 0, 0, 0, 0, 0, 0, 0, 0, 0, 0, 0, 0, 1\n0, 0, 0, 0, 0, 0, 0, 0, 0, 0, 0, 0, 0, 0\n0, 0, 0, 0, 0, 0, 0, 0, 0, 0, 0, 0, 0]"] ;
31 -> 32 ;
33 [label="entropy = 0.0\nsamples = 1\nvalue = [0, 0, 0, 0, 0, 0, 0, 0, 0, 0, 0, 0, 0, 0\n0, 0, 0, 0, 0, 0, 0, 0, 0, 0, 0, 0, 0, 0\n0, 0, 0, 0, 1, 0, 0, 0, 0, 0, 0, 0, 0]"] ;
31 -> 33 ;
34 [label="entropy = 0.0\nsamples = 1\nvalue = [0, 0, 0, 0, 0, 0, 0, 0, 0, 0, 0, 0, 0, 0\n0, 0, 0, 0, 0, 0, 0, 0, 0, 0, 0, 0, 0, 0\n0, 0, 0, 0, 0, 1, 0, 0, 0, 0, 0, 0, 0]"] ;
30 -> 34 ;
35 [label="entropy = 0.0\nsamples = 1\nvalue = [0, 0, 0, 0, 0, 0, 0, 0, 0, 0, 0, 0, 0, 0\n0, 0, 0, 0, 0, 0, 0, 0, 0, 0, 0, 0, 0, 0\n0, 0, 0, 0, 0, 0, 0, 0, 0, 0, 2, 0, 0]"] ;
27 -> 35 ;
36 [label="entropy = 0.0\nsamples = 7\nvalue = [0, 0, 0, 0, 0, 0, 0, 0, 0, 0, 0, 0, 0, 0\n0, 0, 0, 0, 0, 0, 0, 0, 0, 0, 0, 0, 0, 8\n0, 0, 0, 0, 0, 0, 0, 0, 0, 0, 0, 0, 0]"] ;
26 -> 36 ;
37 [label="skin_rash <= 0.5\nentropy = 1.8\nsamples = 6\nvalue = [0, 0, 0, 0, 2, 0, 0, 1, 0, 0, 0, 0, 0, 0\n0, 0, 0, 0, 0, 0, 0, 0, 0, 0, 0, 0, 0, 3\n0, 0, 0, 0, 0, 0, 0, 0, 0, 0, 1, 0, 0]"] ;
25 -> 37 ;
38 [label="neck_pain <= 0.5\nentropy = 1.5\nsamples = 4\nvalue = [0, 0, 0, 0, 2, 0, 0, 1, 0, 0, 0, 0, 0, 0\n0, 0, 0, 0, 0, 0, 0, 0, 0, 0, 0, 0, 0, 0\n0, 0, 0, 0, 0, 0, 0, 0, 0, 0, 1, 0, 0]"] ;
37 -> 38 ;
39 [label="burning_micturition <= 0.5\nentropy = 0.9\nsamples = 3\nvalue = [0, 0, 0, 0, 2, 0, 0, 0, 0, 0, 0, 0, 0, 0\n0, 0, 0, 0, 0, 0, 0, 0, 0, 0, 0, 0, 0, 0\n0, 0, 0, 0, 0, 0, 0, 0, 0, 0, 1, 0, 0]"] ;
38 -> 39 ;
40 [label="entropy = 0.0\nsamples = 1\nvalue = [0, 0, 0, 0, 1, 0, 0, 0, 0, 0, 0, 0, 0, 0\n0, 0, 0, 0, 0, 0, 0, 0, 0, 0, 0, 0, 0, 0\n0, 0, 0, 0, 0, 0, 0, 0, 0, 0, 0, 0, 0]"] ;
39 -> 40 ;
41 [label="foul_smell_of urine <= 0.5\nentropy = 1.0\nsamples = 2\nvalue = [0, 0, 0, 0, 1, 0, 0, 0, 0, 0, 0, 0, 0, 0\n0, 0, 0, 0, 0, 0, 0, 0, 0, 0, 0, 0, 0, 0\n0, 0, 0, 0, 0, 0, 0, 0, 0, 0, 1, 0, 0]"] ;
39 -> 41 ;
42 [label="entropy = 0.0\nsamples = 1\nvalue = [0, 0, 0, 0, 1, 0, 0, 0, 0, 0, 0, 0, 0, 0\n0, 0, 0, 0, 0, 0, 0, 0, 0, 0, 0, 0, 0, 0\n0, 0, 0, 0, 0, 0, 0, 0, 0, 0, 0, 0, 0]"] ;
41 -> 42 ;
43 [label="entropy = 0.0\nsamples = 1\nvalue = [0, 0, 0, 0, 0, 0, 0, 0, 0, 0, 0, 0, 0, 0\n0, 0, 0, 0, 0, 0, 0, 0, 0, 0, 0, 0, 0, 0\n0, 0, 0, 0, 0, 0, 0, 0, 0, 0, 1, 0, 0]"] ;
41 -> 43 ;
44 [label="entropy = 0.0\nsamples = 1\nvalue = [0, 0, 0, 0, 0, 0, 0, 1, 0, 0, 0, 0, 0, 0\n0, 0, 0, 0, 0, 0, 0, 0, 0, 0, 0, 0, 0, 0\n0, 0, 0, 0, 0, 0, 0, 0, 0, 0, 0, 0, 0]"] ;
38 -> 44 ;
45 [label="entropy = 0.0\nsamples = 2\nvalue = [0, 0, 0, 0, 0, 0, 0, 0, 0, 0, 0, 0, 0, 0\n0, 0, 0, 0, 0, 0, 0, 0, 0, 0, 0, 0, 0, 3\n0, 0, 0, 0, 0, 0, 0, 0, 0, 0, 0, 0, 0]"] ;
37 -> 45 ;
46 [label="entropy = 0.0\nsamples = 2\nvalue = [3, 0, 0, 0, 0, 0, 0, 0, 0, 0, 0, 0, 0, 0\n0, 0, 0, 0, 0, 0, 0, 0, 0, 0, 0, 0, 0, 0\n0, 0, 0, 0, 0, 0, 0, 0, 0, 0, 0, 0, 0]"] ;
24 -> 46 ;
47 [label="continuous_feel_of_urine <= 0.5\nentropy = 3.1\nsamples = 18\nvalue = [2, 1, 0, 0, 4, 0, 0, 1, 0, 0, 0, 0, 0, 6\n0, 0, 0, 0, 0, 0, 0, 0, 0, 0, 0, 0, 0, 4\n0, 0, 0, 0, 2, 2, 0, 0, 0, 0, 6, 6, 0]"] ;
23 -> 47 ;
48 [label="blister <= 0.5\nentropy = 2.9\nsamples = 16\nvalue = [2, 1, 0, 0, 4, 0, 0, 1, 0, 0, 0, 0, 0, 6\n0, 0, 0, 0, 0, 0, 0, 0, 0, 0, 0, 0, 0, 4\n0, 0, 0, 0, 2, 2, 0, 0, 0, 0, 0, 6, 0]"] ;
47 -> 48 ;
49 [label="unsteadiness <= 0.5\nentropy = 2.7\nsamples = 14\nvalue = [2, 1, 0, 0, 4, 0, 0, 1, 0, 0, 0, 0, 0, 6\n0, 0, 0, 0, 0, 0, 0, 0, 0, 0, 0, 0, 0, 0\n0, 0, 0, 0, 2, 2, 0, 0, 0, 0, 0, 6, 0]"] ;
48 -> 49 ;
50 [label="swollen_blood_vessels <= 0.5\nentropy = 2.5\nsamples = 13\nvalue = [0, 1, 0, 0, 4, 0, 0, 1, 0, 0, 0, 0, 0, 6\n0, 0, 0, 0, 0, 0, 0, 0, 0, 0, 0, 0, 0, 0\n0, 0, 0, 0, 2, 2, 0, 0, 0, 0, 0, 6, 0]"] ;
49 -> 50 ;
51 [label="pain_in_anal_region <= 0.5\nentropy = 2.3\nsamples = 10\nvalue = [0, 1, 0, 0, 4, 0, 0, 1, 0, 0, 0, 0, 0, 6\n0, 0, 0, 0, 0, 0, 0, 0, 0, 0, 0, 0, 0, 0\n0, 0, 0, 0, 2, 2, 0, 0, 0, 0, 0, 0, 0]"] ;
50 -> 51 ;
52 [label="altered_sensorium <= 0.5\nentropy = 2.1\nsamples = 8\nvalue = [0, 1, 0, 0, 4, 0, 0, 1, 0, 0, 0, 0, 0, 0\n0, 0, 0, 0, 0, 0, 0, 0, 0, 0, 0, 0, 0, 0\n0, 0, 0, 0, 2, 2, 0, 0, 0, 0, 0, 0, 0]"] ;
51 -> 52 ;
53 [label="neck_pain <= 0.5\nentropy = 1.8\nsamples = 6\nvalue = [0, 1, 0, 0, 4, 0, 0, 1, 0, 0, 0, 0, 0, 0\n0, 0, 0, 0, 0, 0, 0, 0, 0, 0, 0, 0, 0, 0\n0, 0, 0, 0, 0, 2, 0, 0, 0, 0, 0, 0, 0]"] ;
52 -> 53 ;
54 [label="continuous_sneezing <= 0.5\nentropy = 1.4\nsamples = 5\nvalue = [0, 1, 0, 0, 4, 0, 0, 0, 0, 0, 0, 0, 0, 0\n0, 0, 0, 0, 0, 0, 0, 0, 0, 0, 0, 0, 0, 0\n0, 0, 0, 0, 0, 2, 0, 0, 0, 0, 0, 0, 0]"] ;
53 -> 54 ;
55 [label="passage_of_gases <= 0.5\nentropy = 0.9\nsamples = 3\nvalue = [0, 1, 0, 0, 0, 0, 0, 0, 0, 0, 0, 0, 0, 0\n0, 0, 0, 0, 0, 0, 0, 0, 0, 0, 0, 0, 0, 0\n0, 0, 0, 0, 0, 2, 0, 0, 0, 0, 0, 0, 0]"] ;
54 -> 55 ;
56 [label="entropy = 0.0\nsamples = 1\nvalue = [0, 1, 0, 0, 0, 0, 0, 0, 0, 0, 0, 0, 0, 0\n0, 0, 0, 0, 0, 0, 0, 0, 0, 0, 0, 0, 0, 0\n0, 0, 0, 0, 0, 0, 0, 0, 0, 0, 0, 0, 0]"] ;
55 -> 56 ;
57 [label="entropy = 0.0\nsamples = 2\nvalue = [0, 0, 0, 0, 0, 0, 0, 0, 0, 0, 0, 0, 0, 0\n0, 0, 0, 0, 0, 0, 0, 0, 0, 0, 0, 0, 0, 0\n0, 0, 0, 0, 0, 2, 0, 0, 0, 0, 0, 0, 0]"] ;
55 -> 57 ;
58 [label="entropy = 0.0\nsamples = 2\nvalue = [0, 0, 0, 0, 4, 0, 0, 0, 0, 0, 0, 0, 0, 0\n0, 0, 0, 0, 0, 0, 0, 0, 0, 0, 0, 0, 0, 0\n0, 0, 0, 0, 0, 0, 0, 0, 0, 0, 0, 0, 0]"] ;
54 -> 58 ;
59 [label="entropy = 0.0\nsamples = 1\nvalue = [0, 0, 0, 0, 0, 0, 0, 1, 0, 0, 0, 0, 0, 0\n0, 0, 0, 0, 0, 0, 0, 0, 0, 0, 0, 0, 0, 0\n0, 0, 0, 0, 0, 0, 0, 0, 0, 0, 0, 0, 0]"] ;
53 -> 59 ;
60 [label="entropy = 0.0\nsamples = 2\nvalue = [0, 0, 0, 0, 0, 0, 0, 0, 0, 0, 0, 0, 0, 0\n0, 0, 0, 0, 0, 0, 0, 0, 0, 0, 0, 0, 0, 0\n0, 0, 0, 0, 2, 0, 0, 0, 0, 0, 0, 0, 0]"] ;
52 -> 60 ;
61 [label="entropy = 0.0\nsamples = 2\nvalue = [0, 0, 0, 0, 0, 0, 0, 0, 0, 0, 0, 0, 0, 6\n0, 0, 0, 0, 0, 0, 0, 0, 0, 0, 0, 0, 0, 0\n0, 0, 0, 0, 0, 0, 0, 0, 0, 0, 0, 0, 0]"] ;
51 -> 61 ;
62 [label="entropy = 0.0\nsamples = 3\nvalue = [0, 0, 0, 0, 0, 0, 0, 0, 0, 0, 0, 0, 0, 0\n0, 0, 0, 0, 0, 0, 0, 0, 0, 0, 0, 0, 0, 0\n0, 0, 0, 0, 0, 0, 0, 0, 0, 0, 0, 6, 0]"] ;
50 -> 62 ;
63 [label="entropy = 0.0\nsamples = 1\nvalue = [2, 0, 0, 0, 0, 0, 0, 0, 0, 0, 0, 0, 0, 0\n0, 0, 0, 0, 0, 0, 0, 0, 0, 0, 0, 0, 0, 0\n0, 0, 0, 0, 0, 0, 0, 0, 0, 0, 0, 0, 0]"] ;
49 -> 63 ;
64 [label="entropy = 0.0\nsamples = 2\nvalue = [0, 0, 0, 0, 0, 0, 0, 0, 0, 0, 0, 0, 0, 0\n0, 0, 0, 0, 0, 0, 0, 0, 0, 0, 0, 0, 0, 4\n0, 0, 0, 0, 0, 0, 0, 0, 0, 0, 0, 0, 0]"] ;
48 -> 64 ;
65 [label="entropy = 0.0\nsamples = 2\nvalue = [0, 0, 0, 0, 0, 0, 0, 0, 0, 0, 0, 0, 0, 0\n0, 0, 0, 0, 0, 0, 0, 0, 0, 0, 0, 0, 0, 0\n0, 0, 0, 0, 0, 0, 0, 0, 0, 0, 6, 0, 0]"] ;
47 -> 65 ;
66 [label="movement_stiffness <= 0.5\nentropy = 1.0\nsamples = 5\nvalue = [0, 0, 0, 0, 0, 3, 0, 0, 0, 0, 0, 0, 0, 0\n0, 0, 0, 0, 0, 0, 0, 0, 0, 0, 0, 0, 0, 0\n0, 0, 0, 3, 0, 0, 0, 0, 0, 0, 0, 0, 0]"] ;
22 -> 66 ;
67 [label="entropy = 0.0\nsamples = 3\nvalue = [0, 0, 0, 0, 0, 0, 0, 0, 0, 0, 0, 0, 0, 0\n0, 0, 0, 0, 0, 0, 0, 0, 0, 0, 0, 0, 0, 0\n0, 0, 0, 3, 0, 0, 0, 0, 0, 0, 0, 0, 0]"] ;
66 -> 67 ;
68 [label="entropy = 0.0\nsamples = 2\nvalue = [0, 0, 0, 0, 0, 3, 0, 0, 0, 0, 0, 0, 0, 0\n0, 0, 0, 0, 0, 0, 0, 0, 0, 0, 0, 0, 0, 0\n0, 0, 0, 0, 0, 0, 0, 0, 0, 0, 0, 0, 0]"] ;
66 -> 68 ;
69 [label="entropy = 0.0\nsamples = 4\nvalue = [0, 0, 0, 7, 0, 0, 0, 0, 0, 0, 0, 0, 0, 0\n0, 0, 0, 0, 0, 0, 0, 0, 0, 0, 0, 0, 0, 0\n0, 0, 0, 0, 0, 0, 0, 0, 0, 0, 0, 0, 0]"] ;
21 -> 69 ;
70 [label="entropy = 0.0\nsamples = 5\nvalue = [0, 0, 0, 0, 0, 0, 0, 0, 0, 0, 0, 0, 0, 0\n0, 0, 0, 10, 0, 0, 0, 0, 0, 0, 0, 0, 0, 0\n0, 0, 0, 0, 0, 0, 0, 0, 0, 0, 0, 0, 0]"] ;
20 -> 70 ;
71 [label="entropy = 0.0\nsamples = 2\nvalue = [0, 0, 0, 0, 0, 0, 0, 0, 0, 0, 0, 0, 0, 0\n0, 0, 0, 0, 0, 0, 0, 0, 0, 0, 0, 0, 0, 0\n0, 0, 0, 0, 0, 0, 0, 2, 0, 0, 0, 0, 0]"] ;
19 -> 71 ;
72 [label="entropy = 0.0\nsamples = 43\nvalue = [0, 0, 0, 0, 0, 0, 0, 0, 0, 0, 0, 0, 0, 0\n0, 0, 0, 0, 0, 0, 0, 0, 0, 0, 0, 0, 0, 0\n0, 0, 0, 0, 0, 0, 0, 65, 0, 0, 0, 0, 0]"] ;
18 -> 72 ;
73 [label="entropy = 0.0\nsamples = 6\nvalue = [0, 0, 8, 0, 0, 0, 0, 0, 0, 0, 0, 0, 0, 0\n0, 0, 0, 0, 0, 0, 0, 0, 0, 0, 0, 0, 0, 0\n0, 0, 0, 0, 0, 0, 0, 0, 0, 0, 0, 0, 0]"] ;
17 -> 73 ;
74 [label="muscle_wasting <= 0.5\nentropy = 1.0\nsamples = 7\nvalue = [0, 0, 0, 0, 0, 0, 0, 0, 0, 0, 0, 0, 0, 0\n0, 5, 0, 0, 0, 0, 0, 0, 0, 0, 0, 0, 0, 0\n0, 0, 0, 0, 0, 0, 0, 7, 0, 0, 0, 0, 0]"] ;
16 -> 74 ;
75 [label="small_dents_in_nails <= 0.5\nentropy = 0.7\nsamples = 4\nvalue = [0, 0, 0, 0, 0, 0, 0, 0, 0, 0, 0, 0, 0, 0\n0, 5, 0, 0, 0, 0, 0, 0, 0, 0, 0, 0, 0, 0\n0, 0, 0, 0, 0, 0, 0, 1, 0, 0, 0, 0, 0]"] ;
74 -> 75 ;
76 [label="entropy = 0.0\nsamples = 3\nvalue = [0, 0, 0, 0, 0, 0, 0, 0, 0, 0, 0, 0, 0, 0\n0, 5, 0, 0, 0, 0, 0, 0, 0, 0, 0, 0, 0, 0\n0, 0, 0, 0, 0, 0, 0, 0, 0, 0, 0, 0, 0]"] ;
75 -> 76 ;
77 [label="entropy = 0.0\nsamples = 1\nvalue = [0, 0, 0, 0, 0, 0, 0, 0, 0, 0, 0, 0, 0, 0\n0, 0, 0, 0, 0, 0, 0, 0, 0, 0, 0, 0, 0, 0\n0, 0, 0, 0, 0, 0, 0, 1, 0, 0, 0, 0, 0]"] ;
75 -> 77 ;
78 [label="entropy = 0.0\nsamples = 3\nvalue = [0, 0, 0, 0, 0, 0, 0, 0, 0, 0, 0, 0, 0, 0\n0, 0, 0, 0, 0, 0, 0, 0, 0, 0, 0, 0, 0, 0\n0, 0, 0, 0, 0, 0, 0, 6, 0, 0, 0, 0, 0]"] ;
74 -> 78 ;
79 [label="loss_of_balance <= 0.5\nentropy = 1.4\nsamples = 12\nvalue = [0, 0, 0, 0, 0, 0, 0, 0, 0, 0, 0, 0, 0, 0\n0, 0, 2, 0, 6, 0, 0, 0, 0, 8, 0, 0, 0, 0\n0, 0, 0, 0, 0, 0, 0, 0, 0, 0, 0, 0, 0]"] ;
15 -> 79 ;
80 [label="burning_micturition <= 0.5\nentropy = 0.8\nsamples = 7\nvalue = [0, 0, 0, 0, 0, 0, 0, 0, 0, 0, 0, 0, 0, 0\n0, 0, 2, 0, 6, 0, 0, 0, 0, 0, 0, 0, 0, 0\n0, 0, 0, 0, 0, 0, 0, 0, 0, 0, 0, 0, 0]"] ;
79 -> 80 ;
81 [label="ulcers_on_tongue <= 0.5\nentropy = 1.0\nsamples = 5\nvalue = [0, 0, 0, 0, 0, 0, 0, 0, 0, 0, 0, 0, 0, 0\n0, 0, 2, 0, 3, 0, 0, 0, 0, 0, 0, 0, 0, 0\n0, 0, 0, 0, 0, 0, 0, 0, 0, 0, 0, 0, 0]"] ;
80 -> 81 ;
82 [label="entropy = 0.0\nsamples = 3\nvalue = [0, 0, 0, 0, 0, 0, 0, 0, 0, 0, 0, 0, 0, 0\n0, 0, 0, 0, 3, 0, 0, 0, 0, 0, 0, 0, 0, 0\n0, 0, 0, 0, 0, 0, 0, 0, 0, 0, 0, 0, 0]"] ;
81 -> 82 ;
83 [label="entropy = 0.0\nsamples = 2\nvalue = [0, 0, 0, 0, 0, 0, 0, 0, 0, 0, 0, 0, 0, 0\n0, 0, 2, 0, 0, 0, 0, 0, 0, 0, 0, 0, 0, 0\n0, 0, 0, 0, 0, 0, 0, 0, 0, 0, 0, 0, 0]"] ;
81 -> 83 ;
84 [label="entropy = 0.0\nsamples = 2\nvalue = [0, 0, 0, 0, 0, 0, 0, 0, 0, 0, 0, 0, 0, 0\n0, 0, 0, 0, 3, 0, 0, 0, 0, 0, 0, 0, 0, 0\n0, 0, 0, 0, 0, 0, 0, 0, 0, 0, 0, 0, 0]"] ;
80 -> 84 ;
85 [label="entropy = 0.0\nsamples = 5\nvalue = [0, 0, 0, 0, 0, 0, 0, 0, 0, 0, 0, 0, 0, 0\n0, 0, 0, 0, 0, 0, 0, 0, 0, 8, 0, 0, 0, 0\n0, 0, 0, 0, 0, 0, 0, 0, 0, 0, 0, 0, 0]"] ;
79 -> 85 ;
86 [label="entropy = 0.0\nsamples = 50\nvalue = [0, 0, 0, 0, 0, 0, 0, 0, 0, 0, 0, 0, 0, 0\n0, 0, 0, 0, 0, 0, 0, 0, 0, 0, 0, 0, 0, 0\n0, 0, 0, 77, 0, 0, 0, 0, 0, 0, 0, 0, 0]"] ;
14 -> 86 ;
87 [label="entropy = 0.0\nsamples = 52\nvalue = [0, 0, 0, 0, 0, 0, 0, 0, 0, 0, 0, 0, 0, 0\n0, 0, 0, 0, 0, 0, 0, 0, 0, 0, 0, 0, 0, 0\n0, 0, 0, 0, 0, 0, 0, 0, 0, 0, 86, 0, 0]"] ;
13 -> 87 ;
88 [label="entropy = 0.0\nsamples = 43\nvalue = [0, 0, 75, 0, 0, 0, 0, 0, 0, 0, 0, 0, 0, 0\n0, 0, 0, 0, 0, 0, 0, 0, 0, 0, 0, 0, 0, 0\n0, 0, 0, 0, 0, 0, 0, 0, 0, 0, 0, 0, 0]"] ;
12 -> 88 ;
89 [label="headache <= 0.5\nentropy = 0.1\nsamples = 45\nvalue = [0, 0, 0, 0, 0, 69, 0, 0, 0, 0, 0, 0, 0, 0\n0, 0, 0, 0, 0, 0, 0, 0, 0, 0, 0, 0, 0, 0\n0, 0, 1, 0, 0, 0, 0, 0, 0, 0, 0, 0, 0]"] ;
11 -> 89 ;
90 [label="entropy = 0.0\nsamples = 44\nvalue = [0, 0, 0, 0, 0, 69, 0, 0, 0, 0, 0, 0, 0, 0\n0, 0, 0, 0, 0, 0, 0, 0, 0, 0, 0, 0, 0, 0\n0, 0, 0, 0, 0, 0, 0, 0, 0, 0, 0, 0, 0]"] ;
89 -> 90 ;
91 [label="entropy = 0.0\nsamples = 1\nvalue = [0, 0, 0, 0, 0, 0, 0, 0, 0, 0, 0, 0, 0, 0\n0, 0, 0, 0, 0, 0, 0, 0, 0, 0, 0, 0, 0, 0\n0, 0, 1, 0, 0, 0, 0, 0, 0, 0, 0, 0, 0]"] ;
89 -> 91 ;
92 [label="nodal_skin_eruptions <= 0.5\nentropy = 1.0\nsamples = 76\nvalue = [0, 64, 0, 0, 0, 0, 0, 0, 0, 0, 0, 0, 0, 0\n0, 0, 0, 0, 0, 0, 0, 0, 0, 0, 0, 0, 0, 62\n0, 0, 0, 0, 0, 0, 0, 0, 0, 0, 0, 0, 0]"] ;
10 -> 92 ;
93 [label="muscle_wasting <= 0.5\nentropy = 1.0\nsamples = 72\nvalue = [0, 62, 0, 0, 0, 0, 0, 0, 0, 0, 0, 0, 0, 0\n0, 0, 0, 0, 0, 0, 0, 0, 0, 0, 0, 0, 0, 58\n0, 0, 0, 0, 0, 0, 0, 0, 0, 0, 0, 0, 0]"] ;
92 -> 93 ;
94 [label="joint_pain <= 0.5\nentropy = 0.4\nsamples = 34\nvalue = [0, 5, 0, 0, 0, 0, 0, 0, 0, 0, 0, 0, 0, 0\n0, 0, 0, 0, 0, 0, 0, 0, 0, 0, 0, 0, 0, 58\n0, 0, 0, 0, 0, 0, 0, 0, 0, 0, 0, 0, 0]"] ;
93 -> 94 ;
95 [label="red_sore_around_nose <= 0.5\nentropy = 0.2\nsamples = 29\nvalue = [0, 2, 0, 0, 0, 0, 0, 0, 0, 0, 0, 0, 0, 0\n0, 0, 0, 0, 0, 0, 0, 0, 0, 0, 0, 0, 0, 52\n0, 0, 0, 0, 0, 0, 0, 0, 0, 0, 0, 0, 0]"] ;
94 -> 95 ;
96 [label="skin_rash <= 0.5\nentropy = 0.9\nsamples = 2\nvalue = [0, 2, 0, 0, 0, 0, 0, 0, 0, 0, 0, 0, 0, 0\n0, 0, 0, 0, 0, 0, 0, 0, 0, 0, 0, 0, 0, 1\n0, 0, 0, 0, 0, 0, 0, 0, 0, 0, 0, 0, 0]"] ;
95 -> 96 ;
97 [label="entropy = 0.0\nsamples = 1\nvalue = [0, 2, 0, 0, 0, 0, 0, 0, 0, 0, 0, 0, 0, 0\n0, 0, 0, 0, 0, 0, 0, 0, 0, 0, 0, 0, 0, 0\n0, 0, 0, 0, 0, 0, 0, 0, 0, 0, 0, 0, 0]"] ;
96 -> 97 ;
98 [label="entropy = 0.0\nsamples = 1\nvalue = [0, 0, 0, 0, 0, 0, 0, 0, 0, 0, 0, 0, 0, 0\n0, 0, 0, 0, 0, 0, 0, 0, 0, 0, 0, 0, 0, 1\n0, 0, 0, 0, 0, 0, 0, 0, 0, 0, 0, 0, 0]"] ;
96 -> 98 ;
99 [label="entropy = 0.0\nsamples = 27\nvalue = [0, 0, 0, 0, 0, 0, 0, 0, 0, 0, 0, 0, 0, 0\n0, 0, 0, 0, 0, 0, 0, 0, 0, 0, 0, 0, 0, 51\n0, 0, 0, 0, 0, 0, 0, 0, 0, 0, 0, 0, 0]"] ;
95 -> 99 ;
100 [label="patches_in_throat <= 0.5\nentropy = 0.9\nsamples = 5\nvalue = [0, 3, 0, 0, 0, 0, 0, 0, 0, 0, 0, 0, 0, 0\n0, 0, 0, 0, 0, 0, 0, 0, 0, 0, 0, 0, 0, 6\n0, 0, 0, 0, 0, 0, 0, 0, 0, 0, 0, 0, 0]"] ;
94 -> 100 ;
101 [label="entropy = 0.0\nsamples = 3\nvalue = [0, 0, 0, 0, 0, 0, 0, 0, 0, 0, 0, 0, 0, 0\n0, 0, 0, 0, 0, 0, 0, 0, 0, 0, 0, 0, 0, 6\n0, 0, 0, 0, 0, 0, 0, 0, 0, 0, 0, 0, 0]"] ;
100 -> 101 ;
102 [label="entropy = 0.0\nsamples = 2\nvalue = [0, 3, 0, 0, 0, 0, 0, 0, 0, 0, 0, 0, 0, 0\n0, 0, 0, 0, 0, 0, 0, 0, 0, 0, 0, 0, 0, 0\n0, 0, 0, 0, 0, 0, 0, 0, 0, 0, 0, 0, 0]"] ;
100 -> 102 ;
103 [label="entropy = 0.0\nsamples = 38\nvalue = [0, 57, 0, 0, 0, 0, 0, 0, 0, 0, 0, 0, 0, 0\n0, 0, 0, 0, 0, 0, 0, 0, 0, 0, 0, 0, 0, 0\n0, 0, 0, 0, 0, 0, 0, 0, 0, 0, 0, 0, 0]"] ;
93 -> 103 ;
104 [label="extra_marital_contacts <= 0.5\nentropy = 0.9\nsamples = 4\nvalue = [0, 2, 0, 0, 0, 0, 0, 0, 0, 0, 0, 0, 0, 0\n0, 0, 0, 0, 0, 0, 0, 0, 0, 0, 0, 0, 0, 4\n0, 0, 0, 0, 0, 0, 0, 0, 0, 0, 0, 0, 0]"] ;
92 -> 104 ;
105 [label="entropy = 0.0\nsamples = 2\nvalue = [0, 0, 0, 0, 0, 0, 0, 0, 0, 0, 0, 0, 0, 0\n0, 0, 0, 0, 0, 0, 0, 0, 0, 0, 0, 0, 0, 4\n0, 0, 0, 0, 0, 0, 0, 0, 0, 0, 0, 0, 0]"] ;
104 -> 105 ;
106 [label="entropy = 0.0\nsamples = 2\nvalue = [0, 2, 0, 0, 0, 0, 0, 0, 0, 0, 0, 0, 0, 0\n0, 0, 0, 0, 0, 0, 0, 0, 0, 0, 0, 0, 0, 0\n0, 0, 0, 0, 0, 0, 0, 0, 0, 0, 0, 0, 0]"] ;
104 -> 106 ;
107 [label="joint_pain <= 0.5\nentropy = 0.7\nsamples = 7\nvalue = [0, 0, 0, 0, 0, 0, 12, 0, 0, 0, 0, 0, 0, 0\n0, 0, 0, 0, 0, 0, 3, 0, 0, 0, 0, 0, 0, 0\n0, 0, 0, 0, 0, 0, 0, 0, 0, 0, 0, 0, 0]"] ;
9 -> 107 ;
108 [label="yellowish_skin <= 0.5\nentropy = 0.8\nsamples = 4\nvalue = [0, 0, 0, 0, 0, 0, 7, 0, 0, 0, 0, 0, 0, 0\n0, 0, 0, 0, 0, 0, 2, 0, 0, 0, 0, 0, 0, 0\n0, 0, 0, 0, 0, 0, 0, 0, 0, 0, 0, 0, 0]"] ;
107 -> 108 ;
109 [label="entropy = 0.0\nsamples = 2\nvalue = [0, 0, 0, 0, 0, 0, 7, 0, 0, 0, 0, 0, 0, 0\n0, 0, 0, 0, 0, 0, 0, 0, 0, 0, 0, 0, 0, 0\n0, 0, 0, 0, 0, 0, 0, 0, 0, 0, 0, 0, 0]"] ;
108 -> 109 ;
110 [label="entropy = 0.0\nsamples = 2\nvalue = [0, 0, 0, 0, 0, 0, 0, 0, 0, 0, 0, 0, 0, 0\n0, 0, 0, 0, 0, 0, 2, 0, 0, 0, 0, 0, 0, 0\n0, 0, 0, 0, 0, 0, 0, 0, 0, 0, 0, 0, 0]"] ;
108 -> 110 ;
111 [label="loss_of_appetite <= 0.5\nentropy = 0.7\nsamples = 3\nvalue = [0, 0, 0, 0, 0, 0, 5, 0, 0, 0, 0, 0, 0, 0\n0, 0, 0, 0, 0, 0, 1, 0, 0, 0, 0, 0, 0, 0\n0, 0, 0, 0, 0, 0, 0, 0, 0, 0, 0, 0, 0]"] ;
107 -> 111 ;
112 [label="entropy = 0.0\nsamples = 2\nvalue = [0, 0, 0, 0, 0, 0, 5, 0, 0, 0, 0, 0, 0, 0\n0, 0, 0, 0, 0, 0, 0, 0, 0, 0, 0, 0, 0, 0\n0, 0, 0, 0, 0, 0, 0, 0, 0, 0, 0, 0, 0]"] ;
111 -> 112 ;
113 [label="entropy = 0.0\nsamples = 1\nvalue = [0, 0, 0, 0, 0, 0, 0, 0, 0, 0, 0, 0, 0, 0\n0, 0, 0, 0, 0, 0, 1, 0, 0, 0, 0, 0, 0, 0\n0, 0, 0, 0, 0, 0, 0, 0, 0, 0, 0, 0, 0]"] ;
111 -> 113 ;
114 [label="entropy = 0.0\nsamples = 42\nvalue = [0, 0, 0, 0, 0, 0, 0, 0, 0, 0, 0, 0, 0, 82\n0, 0, 0, 0, 0, 0, 0, 0, 0, 0, 0, 0, 0, 0\n0, 0, 0, 0, 0, 0, 0, 0, 0, 0, 0, 0, 0]"] ;
8 -> 114 ;
115 [label="loss_of_balance <= 0.5\nentropy = 2.9\nsamples = 330\nvalue = [67, 0, 0, 84, 0, 0, 0, 0, 0, 3, 0, 0, 0, 0\n0, 0, 73, 65, 73, 0, 0, 0, 0, 0, 0, 0, 0, 0\n0, 5, 0, 0, 89, 81, 0, 0, 0, 0, 0, 0, 2]"] ;
7 -> 115 ;
116 [label="breathlessness <= 0.5\nentropy = 2.7\nsamples = 289\nvalue = [4, 0, 0, 84, 0, 0, 0, 0, 0, 3, 0, 0, 0, 0\n0, 0, 73, 65, 73, 0, 0, 0, 0, 0, 0, 0, 0, 0\n0, 5, 0, 0, 89, 81, 0, 0, 0, 0, 0, 0, 2]"] ;
115 -> 116 ;
117 [label="history_of_alcohol_consumption <= 0.5\nentropy = 2.6\nsamples = 250\nvalue = [4, 0, 0, 84, 0, 0, 0, 0, 0, 3, 0, 0, 0, 0\n0, 0, 73, 65, 4, 0, 0, 0, 0, 0, 0, 0, 0, 0\n0, 5, 0, 0, 89, 81, 0, 0, 0, 0, 0, 0, 2]"] ;
116 -> 117 ;
118 [label="stomach_pain <= 0.5\nentropy = 2.4\nsamples = 203\nvalue = [4, 0, 0, 5, 0, 0, 0, 0, 0, 3, 0, 0, 0, 0\n0, 0, 73, 65, 4, 0, 0, 0, 0, 0, 0, 0, 0, 0\n0, 5, 0, 0, 89, 81, 0, 0, 0, 0, 0, 0, 2]"] ;
117 -> 118 ;
119 [label="dehydration <= 0.5\nentropy = 2.1\nsamples = 155\nvalue = [4, 0, 0, 5, 0, 0, 0, 0, 0, 3, 0, 0, 0, 0\n0, 0, 1, 65, 4, 0, 0, 0, 0, 0, 0, 0, 0, 0\n0, 5, 0, 0, 89, 81, 0, 0, 0, 0, 0, 0, 2]"] ;
118 -> 119 ;
120 [label="internal_itching <= 0.5\nentropy = 2.0\nsamples = 125\nvalue = [4, 0, 0, 5, 0, 0, 0, 0, 0, 3, 0, 0, 0, 0\n0, 0, 1, 13, 4, 0, 0, 0, 0, 0, 0, 0, 0, 0\n0, 5, 0, 0, 89, 81, 0, 0, 0, 0, 0, 0, 2]"] ;
119 -> 120 ;
121 [label="sweating <= 0.5\nentropy = 1.7\nsamples = 74\nvalue = [4, 0, 0, 5, 0, 0, 0, 0, 0, 3, 0, 0, 0, 0\n0, 0, 1, 13, 4, 0, 0, 0, 0, 0, 0, 0, 0, 0\n0, 5, 0, 0, 89, 2, 0, 0, 0, 0, 0, 0, 2]"] ;
120 -> 121 ;
122 [label="joint_pain <= 0.5\nentropy = 1.4\nsamples = 68\nvalue = [4, 0, 0, 5, 0, 0, 0, 0, 0, 3, 0, 0, 0, 0\n0, 0, 1, 13, 0, 0, 0, 0, 0, 0, 0, 0, 0, 0\n0, 0, 0, 0, 89, 2, 0, 0, 0, 0, 0, 0, 2]"] ;
121 -> 122 ;
123 [label="anxiety <= 0.5\nentropy = 1.0\nsamples = 50\nvalue = [4, 0, 0, 1, 0, 0, 0, 0, 0, 1, 0, 0, 0, 0\n0, 0, 1, 8, 0, 0, 0, 0, 0, 0, 0, 0, 0, 0\n0, 0, 0, 0, 72, 1, 0, 0, 0, 0, 0, 0, 0]"] ;
122 -> 123 ;
124 [label="acidity <= 0.5\nentropy = 1.2\nsamples = 42\nvalue = [4, 0, 0, 1, 0, 0, 0, 0, 0, 1, 0, 0, 0, 0\n0, 0, 1, 8, 0, 0, 0, 0, 0, 0, 0, 0, 0, 0\n0, 0, 0, 0, 59, 1, 0, 0, 0, 0, 0, 0, 0]"] ;
123 -> 124 ;
125 [label="spinning_movements <= 0.5\nentropy = 1.6\nsamples = 26\nvalue = [4, 0, 0, 1, 0, 0, 0, 0, 0, 1, 0, 0, 0, 0\n0, 0, 0, 8, 0, 0, 0, 0, 0, 0, 0, 0, 0, 0\n0, 0, 0, 0, 26, 1, 0, 0, 0, 0, 0, 0, 0]"] ;
124 -> 125 ;
126 [label="abdominal_pain <= 0.5\nentropy = 1.3\nsamples = 24\nvalue = [0, 0, 0, 1, 0, 0, 0, 0, 0, 1, 0, 0, 0, 0\n0, 0, 0, 8, 0, 0, 0, 0, 0, 0, 0, 0, 0, 0\n0, 0, 0, 0, 26, 1, 0, 0, 0, 0, 0, 0, 0]"] ;
125 -> 126 ;
127 [label="burning_micturition <= 0.5\nentropy = 0.8\nsamples = 21\nvalue = [0, 0, 0, 0, 0, 0, 0, 0, 0, 0, 0, 0, 0, 0\n0, 0, 0, 8, 0, 0, 0, 0, 0, 0, 0, 0, 0, 0\n0, 0, 0, 0, 26, 0, 0, 0, 0, 0, 0, 0, 0]"] ;
126 -> 127 ;
128 [label="headache <= 0.5\nentropy = 0.8\nsamples = 16\nvalue = [0, 0, 0, 0, 0, 0, 0, 0, 0, 0, 0, 0, 0, 0\n0, 0, 0, 7, 0, 0, 0, 0, 0, 0, 0, 0, 0, 0\n0, 0, 0, 0, 21, 0, 0, 0, 0, 0, 0, 0, 0]"] ;
127 -> 128 ;
129 [label="sunken_eyes <= 0.5\nentropy = 0.9\nsamples = 6\nvalue = [0, 0, 0, 0, 0, 0, 0, 0, 0, 0, 0, 0, 0, 0\n0, 0, 0, 7, 0, 0, 0, 0, 0, 0, 0, 0, 0, 0\n0, 0, 0, 0, 3, 0, 0, 0, 0, 0, 0, 0, 0]"] ;
128 -> 129 ;
130 [label="entropy = 0.0\nsamples = 2\nvalue = [0, 0, 0, 0, 0, 0, 0, 0, 0, 0, 0, 0, 0, 0\n0, 0, 0, 0, 0, 0, 0, 0, 0, 0, 0, 0, 0, 0\n0, 0, 0, 0, 3, 0, 0, 0, 0, 0, 0, 0, 0]"] ;
129 -> 130 ;
131 [label="entropy = 0.0\nsamples = 4\nvalue = [0, 0, 0, 0, 0, 0, 0, 0, 0, 0, 0, 0, 0, 0\n0, 0, 0, 7, 0, 0, 0, 0, 0, 0, 0, 0, 0, 0\n0, 0, 0, 0, 0, 0, 0, 0, 0, 0, 0, 0, 0]"] ;
129 -> 131 ;
132 [label="entropy = 0.0\nsamples = 10\nvalue = [0, 0, 0, 0, 0, 0, 0, 0, 0, 0, 0, 0, 0, 0\n0, 0, 0, 0, 0, 0, 0, 0, 0, 0, 0, 0, 0, 0\n0, 0, 0, 0, 18, 0, 0, 0, 0, 0, 0, 0, 0]"] ;
128 -> 132 ;
133 [label="muscle_wasting <= 0.5\nentropy = 0.7\nsamples = 5\nvalue = [0, 0, 0, 0, 0, 0, 0, 0, 0, 0, 0, 0, 0, 0\n0, 0, 0, 1, 0, 0, 0, 0, 0, 0, 0, 0, 0, 0\n0, 0, 0, 0, 5, 0, 0, 0, 0, 0, 0, 0, 0]"] ;
127 -> 133 ;
134 [label="sunken_eyes <= 0.5\nentropy = 0.7\nsamples = 4\nvalue = [0, 0, 0, 0, 0, 0, 0, 0, 0, 0, 0, 0, 0, 0\n0, 0, 0, 1, 0, 0, 0, 0, 0, 0, 0, 0, 0, 0\n0, 0, 0, 0, 4, 0, 0, 0, 0, 0, 0, 0, 0]"] ;
133 -> 134 ;
135 [label="entropy = 0.0\nsamples = 3\nvalue = [0, 0, 0, 0, 0, 0, 0, 0, 0, 0, 0, 0, 0, 0\n0, 0, 0, 0, 0, 0, 0, 0, 0, 0, 0, 0, 0, 0\n0, 0, 0, 0, 4, 0, 0, 0, 0, 0, 0, 0, 0]"] ;
134 -> 135 ;
136 [label="entropy = 0.0\nsamples = 1\nvalue = [0, 0, 0, 0, 0, 0, 0, 0, 0, 0, 0, 0, 0, 0\n0, 0, 0, 1, 0, 0, 0, 0, 0, 0, 0, 0, 0, 0\n0, 0, 0, 0, 0, 0, 0, 0, 0, 0, 0, 0, 0]"] ;
134 -> 136 ;
137 [label="entropy = 0.0\nsamples = 1\nvalue = [0, 0, 0, 0, 0, 0, 0, 0, 0, 0, 0, 0, 0, 0\n0, 0, 0, 0, 0, 0, 0, 0, 0, 0, 0, 0, 0, 0\n0, 0, 0, 0, 1, 0, 0, 0, 0, 0, 0, 0, 0]"] ;
133 -> 137 ;
138 [label="yellowish_skin <= 0.5\nentropy = 1.6\nsamples = 3\nvalue = [0, 0, 0, 1, 0, 0, 0, 0, 0, 1, 0, 0, 0, 0\n0, 0, 0, 0, 0, 0, 0, 0, 0, 0, 0, 0, 0, 0\n0, 0, 0, 0, 0, 1, 0, 0, 0, 0, 0, 0, 0]"] ;
126 -> 138 ;
139 [label="entropy = 0.0\nsamples = 1\nvalue = [0, 0, 0, 0, 0, 0, 0, 0, 0, 0, 0, 0, 0, 0\n0, 0, 0, 0, 0, 0, 0, 0, 0, 0, 0, 0, 0, 0\n0, 0, 0, 0, 0, 1, 0, 0, 0, 0, 0, 0, 0]"] ;
138 -> 139 ;
140 [label="distention_of_abdomen <= 0.5\nentropy = 1.0\nsamples = 2\nvalue = [0, 0, 0, 1, 0, 0, 0, 0, 0, 1, 0, 0, 0, 0\n0, 0, 0, 0, 0, 0, 0, 0, 0, 0, 0, 0, 0, 0\n0, 0, 0, 0, 0, 0, 0, 0, 0, 0, 0, 0, 0]"] ;
138 -> 140 ;
141 [label="entropy = 0.0\nsamples = 1\nvalue = [0, 0, 0, 0, 0, 0, 0, 0, 0, 1, 0, 0, 0, 0\n0, 0, 0, 0, 0, 0, 0, 0, 0, 0, 0, 0, 0, 0\n0, 0, 0, 0, 0, 0, 0, 0, 0, 0, 0, 0, 0]"] ;
140 -> 141 ;
142 [label="entropy = 0.0\nsamples = 1\nvalue = [0, 0, 0, 1, 0, 0, 0, 0, 0, 0, 0, 0, 0, 0\n0, 0, 0, 0, 0, 0, 0, 0, 0, 0, 0, 0, 0, 0\n0, 0, 0, 0, 0, 0, 0, 0, 0, 0, 0, 0, 0]"] ;
140 -> 142 ;
143 [label="entropy = 0.0\nsamples = 2\nvalue = [4, 0, 0, 0, 0, 0, 0, 0, 0, 0, 0, 0, 0, 0\n0, 0, 0, 0, 0, 0, 0, 0, 0, 0, 0, 0, 0, 0\n0, 0, 0, 0, 0, 0, 0, 0, 0, 0, 0, 0, 0]"] ;
125 -> 143 ;
144 [label="burning_micturition <= 0.5\nentropy = 0.2\nsamples = 16\nvalue = [0, 0, 0, 0, 0, 0, 0, 0, 0, 0, 0, 0, 0, 0\n0, 0, 1, 0, 0, 0, 0, 0, 0, 0, 0, 0, 0, 0\n0, 0, 0, 0, 33, 0, 0, 0, 0, 0, 0, 0, 0]"] ;
124 -> 144 ;
145 [label="entropy = 0.0\nsamples = 15\nvalue = [0, 0, 0, 0, 0, 0, 0, 0, 0, 0, 0, 0, 0, 0\n0, 0, 0, 0, 0, 0, 0, 0, 0, 0, 0, 0, 0, 0\n0, 0, 0, 0, 33, 0, 0, 0, 0, 0, 0, 0, 0]"] ;
144 -> 145 ;
146 [label="entropy = 0.0\nsamples = 1\nvalue = [0, 0, 0, 0, 0, 0, 0, 0, 0, 0, 0, 0, 0, 0\n0, 0, 1, 0, 0, 0, 0, 0, 0, 0, 0, 0, 0, 0\n0, 0, 0, 0, 0, 0, 0, 0, 0, 0, 0, 0, 0]"] ;
144 -> 146 ;
147 [label="entropy = 0.0\nsamples = 8\nvalue = [0, 0, 0, 0, 0, 0, 0, 0, 0, 0, 0, 0, 0, 0\n0, 0, 0, 0, 0, 0, 0, 0, 0, 0, 0, 0, 0, 0\n0, 0, 0, 0, 13, 0, 0, 0, 0, 0, 0, 0, 0]"] ;
123 -> 147 ;
148 [label="loss_of_appetite <= 0.5\nentropy = 2.0\nsamples = 18\nvalue = [0, 0, 0, 4, 0, 0, 0, 0, 0, 2, 0, 0, 0, 0\n0, 0, 0, 5, 0, 0, 0, 0, 0, 0, 0, 0, 0, 0\n0, 0, 0, 0, 17, 1, 0, 0, 0, 0, 0, 0, 2]"] ;
122 -> 148 ;
149 [label="headache <= 0.5\nentropy = 1.3\nsamples = 15\nvalue = [0, 0, 0, 4, 0, 0, 0, 0, 0, 0, 0, 0, 0, 0\n0, 0, 0, 5, 0, 0, 0, 0, 0, 0, 0, 0, 0, 0\n0, 0, 0, 0, 17, 0, 0, 0, 0, 0, 0, 0, 0]"] ;
148 -> 149 ;
150 [label="fluid_overload.1 <= 0.5\nentropy = 1.4\nsamples = 5\nvalue = [0, 0, 0, 4, 0, 0, 0, 0, 0, 0, 0, 0, 0, 0\n0, 0, 0, 5, 0, 0, 0, 0, 0, 0, 0, 0, 0, 0\n0, 0, 0, 0, 1, 0, 0, 0, 0, 0, 0, 0, 0]"] ;
149 -> 150 ;
151 [label="sunken_eyes <= 0.5\nentropy = 0.7\nsamples = 4\nvalue = [0, 0, 0, 0, 0, 0, 0, 0, 0, 0, 0, 0, 0, 0\n0, 0, 0, 5, 0, 0, 0, 0, 0, 0, 0, 0, 0, 0\n0, 0, 0, 0, 1, 0, 0, 0, 0, 0, 0, 0, 0]"] ;
150 -> 151 ;
152 [label="entropy = 0.0\nsamples = 1\nvalue = [0, 0, 0, 0, 0, 0, 0, 0, 0, 0, 0, 0, 0, 0\n0, 0, 0, 0, 0, 0, 0, 0, 0, 0, 0, 0, 0, 0\n0, 0, 0, 0, 1, 0, 0, 0, 0, 0, 0, 0, 0]"] ;
151 -> 152 ;
153 [label="entropy = 0.0\nsamples = 3\nvalue = [0, 0, 0, 0, 0, 0, 0, 0, 0, 0, 0, 0, 0, 0\n0, 0, 0, 5, 0, 0, 0, 0, 0, 0, 0, 0, 0, 0\n0, 0, 0, 0, 0, 0, 0, 0, 0, 0, 0, 0, 0]"] ;
151 -> 153 ;
154 [label="entropy = 0.0\nsamples = 1\nvalue = [0, 0, 0, 4, 0, 0, 0, 0, 0, 0, 0, 0, 0, 0\n0, 0, 0, 0, 0, 0, 0, 0, 0, 0, 0, 0, 0, 0\n0, 0, 0, 0, 0, 0, 0, 0, 0, 0, 0, 0, 0]"] ;
150 -> 154 ;
155 [label="entropy = 0.0\nsamples = 10\nvalue = [0, 0, 0, 0, 0, 0, 0, 0, 0, 0, 0, 0, 0, 0\n0, 0, 0, 0, 0, 0, 0, 0, 0, 0, 0, 0, 0, 0\n0, 0, 0, 0, 16, 0, 0, 0, 0, 0, 0, 0, 0]"] ;
149 -> 155 ;
156 [label="passage_of_gases <= 0.5\nentropy = 1.5\nsamples = 3\nvalue = [0, 0, 0, 0, 0, 0, 0, 0, 0, 2, 0, 0, 0, 0\n0, 0, 0, 0, 0, 0, 0, 0, 0, 0, 0, 0, 0, 0\n0, 0, 0, 0, 0, 1, 0, 0, 0, 0, 0, 0, 2]"] ;
148 -> 156 ;
157 [label="diarrhoea <= 0.5\nentropy = 1.0\nsamples = 2\nvalue = [0, 0, 0, 0, 0, 0, 0, 0, 0, 2, 0, 0, 0, 0\n0, 0, 0, 0, 0, 0, 0, 0, 0, 0, 0, 0, 0, 0\n0, 0, 0, 0, 0, 0, 0, 0, 0, 0, 0, 0, 2]"] ;
156 -> 157 ;
158 [label="entropy = 0.0\nsamples = 1\nvalue = [0, 0, 0, 0, 0, 0, 0, 0, 0, 2, 0, 0, 0, 0\n0, 0, 0, 0, 0, 0, 0, 0, 0, 0, 0, 0, 0, 0\n0, 0, 0, 0, 0, 0, 0, 0, 0, 0, 0, 0, 0]"] ;
157 -> 158 ;
159 [label="entropy = 0.0\nsamples = 1\nvalue = [0, 0, 0, 0, 0, 0, 0, 0, 0, 0, 0, 0, 0, 0\n0, 0, 0, 0, 0, 0, 0, 0, 0, 0, 0, 0, 0, 0\n0, 0, 0, 0, 0, 0, 0, 0, 0, 0, 0, 0, 2]"] ;
157 -> 159 ;
160 [label="entropy = 0.0\nsamples = 1\nvalue = [0, 0, 0, 0, 0, 0, 0, 0, 0, 0, 0, 0, 0, 0\n0, 0, 0, 0, 0, 0, 0, 0, 0, 0, 0, 0, 0, 0\n0, 0, 0, 0, 0, 1, 0, 0, 0, 0, 0, 0, 0]"] ;
156 -> 160 ;
161 [label="high_fever <= 0.5\nentropy = 1.0\nsamples = 6\nvalue = [0, 0, 0, 0, 0, 0, 0, 0, 0, 0, 0, 0, 0, 0\n0, 0, 0, 0, 4, 0, 0, 0, 0, 0, 0, 0, 0, 0\n0, 5, 0, 0, 0, 0, 0, 0, 0, 0, 0, 0, 0]"] ;
121 -> 161 ;
162 [label="entropy = 0.0\nsamples = 4\nvalue = [0, 0, 0, 0, 0, 0, 0, 0, 0, 0, 0, 0, 0, 0\n0, 0, 0, 0, 4, 0, 0, 0, 0, 0, 0, 0, 0, 0\n0, 0, 0, 0, 0, 0, 0, 0, 0, 0, 0, 0, 0]"] ;
161 -> 162 ;
163 [label="entropy = 0.0\nsamples = 2\nvalue = [0, 0, 0, 0, 0, 0, 0, 0, 0, 0, 0, 0, 0, 0\n0, 0, 0, 0, 0, 0, 0, 0, 0, 0, 0, 0, 0, 0\n0, 5, 0, 0, 0, 0, 0, 0, 0, 0, 0, 0, 0]"] ;
161 -> 163 ;
164 [label="entropy = 0.0\nsamples = 51\nvalue = [0, 0, 0, 0, 0, 0, 0, 0, 0, 0, 0, 0, 0, 0\n0, 0, 0, 0, 0, 0, 0, 0, 0, 0, 0, 0, 0, 0\n0, 0, 0, 0, 0, 79, 0, 0, 0, 0, 0, 0, 0]"] ;
120 -> 164 ;
165 [label="entropy = 0.0\nsamples = 30\nvalue = [0, 0, 0, 0, 0, 0, 0, 0, 0, 0, 0, 0, 0, 0\n0, 0, 0, 52, 0, 0, 0, 0, 0, 0, 0, 0, 0, 0\n0, 0, 0, 0, 0, 0, 0, 0, 0, 0, 0, 0, 0]"] ;
119 -> 165 ;
166 [label="entropy = 0.0\nsamples = 48\nvalue = [0, 0, 0, 0, 0, 0, 0, 0, 0, 0, 0, 0, 0, 0\n0, 0, 72, 0, 0, 0, 0, 0, 0, 0, 0, 0, 0, 0\n0, 0, 0, 0, 0, 0, 0, 0, 0, 0, 0, 0, 0]"] ;
118 -> 166 ;
167 [label="entropy = 0.0\nsamples = 47\nvalue = [0, 0, 0, 79, 0, 0, 0, 0, 0, 0, 0, 0, 0, 0\n0, 0, 0, 0, 0, 0, 0, 0, 0, 0, 0, 0, 0, 0\n0, 0, 0, 0, 0, 0, 0, 0, 0, 0, 0, 0, 0]"] ;
117 -> 167 ;
168 [label="entropy = 0.0\nsamples = 39\nvalue = [0, 0, 0, 0, 0, 0, 0, 0, 0, 0, 0, 0, 0, 0\n0, 0, 0, 0, 69, 0, 0, 0, 0, 0, 0, 0, 0, 0\n0, 0, 0, 0, 0, 0, 0, 0, 0, 0, 0, 0, 0]"] ;
116 -> 168 ;
169 [label="entropy = 0.0\nsamples = 41\nvalue = [63, 0, 0, 0, 0, 0, 0, 0, 0, 0, 0, 0, 0, 0\n0, 0, 0, 0, 0, 0, 0, 0, 0, 0, 0, 0, 0, 0\n0, 0, 0, 0, 0, 0, 0, 0, 0, 0, 0, 0, 0]"] ;
115 -> 169 ;
170 [label="blurred_and_distorted_vision <= 0.5\nentropy = 0.4\nsamples = 49\nvalue = [0, 0, 0, 0, 0, 0, 0, 0, 0, 0, 0, 0, 0, 0\n0, 0, 0, 0, 0, 0, 0, 0, 0, 0, 0, 7, 0, 0\n0, 0, 83, 0, 0, 0, 0, 0, 0, 0, 0, 0, 0]"] ;
6 -> 170 ;
171 [label="entropy = 0.0\nsamples = 4\nvalue = [0, 0, 0, 0, 0, 0, 0, 0, 0, 0, 0, 0, 0, 0\n0, 0, 0, 0, 0, 0, 0, 0, 0, 0, 0, 0, 0, 0\n0, 0, 6, 0, 0, 0, 0, 0, 0, 0, 0, 0, 0]"] ;
170 -> 171 ;
172 [label="irregular_sugar_level <= 0.5\nentropy = 0.4\nsamples = 45\nvalue = [0, 0, 0, 0, 0, 0, 0, 0, 0, 0, 0, 0, 0, 0\n0, 0, 0, 0, 0, 0, 0, 0, 0, 0, 0, 7, 0, 0\n0, 0, 77, 0, 0, 0, 0, 0, 0, 0, 0, 0, 0]"] ;
170 -> 172 ;
173 [label="sweating <= 0.5\nentropy = 0.4\nsamples = 41\nvalue = [0, 0, 0, 0, 0, 0, 0, 0, 0, 0, 0, 0, 0, 0\n0, 0, 0, 0, 0, 0, 0, 0, 0, 0, 0, 7, 0, 0\n0, 0, 73, 0, 0, 0, 0, 0, 0, 0, 0, 0, 0]"] ;
172 -> 173 ;
174 [label="entropy = 0.0\nsamples = 38\nvalue = [0, 0, 0, 0, 0, 0, 0, 0, 0, 0, 0, 0, 0, 0\n0, 0, 0, 0, 0, 0, 0, 0, 0, 0, 0, 0, 0, 0\n0, 0, 73, 0, 0, 0, 0, 0, 0, 0, 0, 0, 0]"] ;
173 -> 174 ;
175 [label="entropy = 0.0\nsamples = 3\nvalue = [0, 0, 0, 0, 0, 0, 0, 0, 0, 0, 0, 0, 0, 0\n0, 0, 0, 0, 0, 0, 0, 0, 0, 0, 0, 7, 0, 0\n0, 0, 0, 0, 0, 0, 0, 0, 0, 0, 0, 0, 0]"] ;
173 -> 175 ;
176 [label="entropy = 0.0\nsamples = 4\nvalue = [0, 0, 0, 0, 0, 0, 0, 0, 0, 0, 0, 0, 0, 0\n0, 0, 0, 0, 0, 0, 0, 0, 0, 0, 0, 0, 0, 0\n0, 0, 4, 0, 0, 0, 0, 0, 0, 0, 0, 0, 0]"] ;
172 -> 176 ;
177 [label="family_history <= 0.5\nentropy = 2.5\nsamples = 177\nvalue = [0, 0, 0, 0, 0, 0, 61, 0, 6, 0, 3, 1, 4, 0\n0, 0, 0, 0, 0, 0, 69, 3, 1, 0, 0, 59, 4, 0\n0, 0, 0, 0, 0, 0, 0, 0, 0, 0, 0, 56, 0]"] ;
5 -> 177 ;
178 [label="bruising <= 0.5\nentropy = 2.1\nsamples = 100\nvalue = [0, 0, 0, 0, 0, 0, 1, 0, 6, 0, 3, 1, 4, 0\n0, 0, 0, 0, 0, 0, 6, 3, 1, 0, 0, 59, 4, 0\n0, 0, 0, 0, 0, 0, 0, 0, 0, 0, 0, 56, 0]"] ;
177 -> 178 ;
179 [label="drying_and_tingling_lips <= 0.5\nentropy = 2.0\nsamples = 62\nvalue = [0, 0, 0, 0, 0, 0, 1, 0, 6, 0, 3, 1, 4, 0\n0, 0, 0, 0, 0, 0, 6, 3, 1, 0, 0, 59, 4, 0\n0, 0, 0, 0, 0, 0, 0, 0, 0, 0, 0, 4, 0]"] ;
178 -> 179 ;
180 [label="loss_of_appetite <= 0.5\nentropy = 3.2\nsamples = 25\nvalue = [0, 0, 0, 0, 0, 0, 1, 0, 6, 0, 3, 1, 4, 0\n0, 0, 0, 0, 0, 0, 6, 3, 1, 0, 0, 5, 4, 0\n0, 0, 0, 0, 0, 0, 0, 0, 0, 0, 0, 4, 0]"] ;
179 -> 180 ;
181 [label="obesity <= 0.5\nentropy = 2.5\nsamples = 16\nvalue = [0, 0, 0, 0, 0, 0, 1, 0, 0, 0, 3, 0, 4, 0\n0, 0, 0, 0, 0, 0, 0, 0, 0, 0, 0, 5, 4, 0\n0, 0, 0, 0, 0, 0, 0, 0, 0, 0, 0, 4, 0]"] ;
180 -> 181 ;
182 [label="throat_irritation <= 0.5\nentropy = 1.8\nsamples = 11\nvalue = [0, 0, 0, 0, 0, 0, 1, 0, 0, 0, 3, 0, 0, 0\n0, 0, 0, 0, 0, 0, 0, 0, 0, 0, 0, 5, 4, 0\n0, 0, 0, 0, 0, 0, 0, 0, 0, 0, 0, 0, 0]"] ;
181 -> 182 ;
183 [label="palpitations <= 0.5\nentropy = 1.4\nsamples = 8\nvalue = [0, 0, 0, 0, 0, 0, 1, 0, 0, 0, 0, 0, 0, 0\n0, 0, 0, 0, 0, 0, 0, 0, 0, 0, 0, 5, 4, 0\n0, 0, 0, 0, 0, 0, 0, 0, 0, 0, 0, 0, 0]"] ;
182 -> 183 ;
184 [label="irritability <= 0.5\nentropy = 0.7\nsamples = 4\nvalue = [0, 0, 0, 0, 0, 0, 1, 0, 0, 0, 0, 0, 0, 0\n0, 0, 0, 0, 0, 0, 0, 0, 0, 0, 0, 0, 4, 0\n0, 0, 0, 0, 0, 0, 0, 0, 0, 0, 0, 0, 0]"] ;
183 -> 184 ;
185 [label="entropy = 0.0\nsamples = 1\nvalue = [0, 0, 0, 0, 0, 0, 1, 0, 0, 0, 0, 0, 0, 0\n0, 0, 0, 0, 0, 0, 0, 0, 0, 0, 0, 0, 0, 0\n0, 0, 0, 0, 0, 0, 0, 0, 0, 0, 0, 0, 0]"] ;
184 -> 185 ;
186 [label="entropy = 0.0\nsamples = 3\nvalue = [0, 0, 0, 0, 0, 0, 0, 0, 0, 0, 0, 0, 0, 0\n0, 0, 0, 0, 0, 0, 0, 0, 0, 0, 0, 0, 4, 0\n0, 0, 0, 0, 0, 0, 0, 0, 0, 0, 0, 0, 0]"] ;
184 -> 186 ;
187 [label="entropy = 0.0\nsamples = 4\nvalue = [0, 0, 0, 0, 0, 0, 0, 0, 0, 0, 0, 0, 0, 0\n0, 0, 0, 0, 0, 0, 0, 0, 0, 0, 0, 5, 0, 0\n0, 0, 0, 0, 0, 0, 0, 0, 0, 0, 0, 0, 0]"] ;
183 -> 187 ;
188 [label="entropy = 0.0\nsamples = 3\nvalue = [0, 0, 0, 0, 0, 0, 0, 0, 0, 0, 3, 0, 0, 0\n0, 0, 0, 0, 0, 0, 0, 0, 0, 0, 0, 0, 0, 0\n0, 0, 0, 0, 0, 0, 0, 0, 0, 0, 0, 0, 0]"] ;
182 -> 188 ;
189 [label="irregular_sugar_level <= 0.5\nentropy = 1.0\nsamples = 5\nvalue = [0, 0, 0, 0, 0, 0, 0, 0, 0, 0, 0, 0, 4, 0\n0, 0, 0, 0, 0, 0, 0, 0, 0, 0, 0, 0, 0, 0\n0, 0, 0, 0, 0, 0, 0, 0, 0, 0, 0, 4, 0]"] ;
181 -> 189 ;
190 [label="entropy = 0.0\nsamples = 3\nvalue = [0, 0, 0, 0, 0, 0, 0, 0, 0, 0, 0, 0, 0, 0\n0, 0, 0, 0, 0, 0, 0, 0, 0, 0, 0, 0, 0, 0\n0, 0, 0, 0, 0, 0, 0, 0, 0, 0, 0, 4, 0]"] ;
189 -> 190 ;
191 [label="entropy = 0.0\nsamples = 2\nvalue = [0, 0, 0, 0, 0, 0, 0, 0, 0, 0, 0, 0, 4, 0\n0, 0, 0, 0, 0, 0, 0, 0, 0, 0, 0, 0, 0, 0\n0, 0, 0, 0, 0, 0, 0, 0, 0, 0, 0, 0, 0]"] ;
189 -> 191 ;
192 [label="yellowish_skin <= 0.5\nentropy = 2.0\nsamples = 9\nvalue = [0, 0, 0, 0, 0, 0, 0, 0, 6, 0, 0, 1, 0, 0\n0, 0, 0, 0, 0, 0, 6, 3, 1, 0, 0, 0, 0, 0\n0, 0, 0, 0, 0, 0, 0, 0, 0, 0, 0, 0, 0]"] ;
180 -> 192 ;
193 [label="vomiting <= 0.5\nentropy = 0.6\nsamples = 4\nvalue = [0, 0, 0, 0, 0, 0, 0, 0, 6, 0, 0, 1, 0, 0\n0, 0, 0, 0, 0, 0, 0, 0, 0, 0, 0, 0, 0, 0\n0, 0, 0, 0, 0, 0, 0, 0, 0, 0, 0, 0, 0]"] ;
192 -> 193 ;
194 [label="entropy = 0.0\nsamples = 3\nvalue = [0, 0, 0, 0, 0, 0, 0, 0, 6, 0, 0, 0, 0, 0\n0, 0, 0, 0, 0, 0, 0, 0, 0, 0, 0, 0, 0, 0\n0, 0, 0, 0, 0, 0, 0, 0, 0, 0, 0, 0, 0]"] ;
193 -> 194 ;
195 [label="entropy = 0.0\nsamples = 1\nvalue = [0, 0, 0, 0, 0, 0, 0, 0, 0, 0, 0, 1, 0, 0\n0, 0, 0, 0, 0, 0, 0, 0, 0, 0, 0, 0, 0, 0\n0, 0, 0, 0, 0, 0, 0, 0, 0, 0, 0, 0, 0]"] ;
193 -> 195 ;
196 [label="abdominal_pain <= 0.5\nentropy = 1.3\nsamples = 5\nvalue = [0, 0, 0, 0, 0, 0, 0, 0, 0, 0, 0, 0, 0, 0\n0, 0, 0, 0, 0, 0, 6, 3, 1, 0, 0, 0, 0, 0\n0, 0, 0, 0, 0, 0, 0, 0, 0, 0, 0, 0, 0]"] ;
192 -> 196 ;
197 [label="entropy = 0.0\nsamples = 2\nvalue = [0, 0, 0, 0, 0, 0, 0, 0, 0, 0, 0, 0, 0, 0\n0, 0, 0, 0, 0, 0, 6, 0, 0, 0, 0, 0, 0, 0\n0, 0, 0, 0, 0, 0, 0, 0, 0, 0, 0, 0, 0]"] ;
196 -> 197 ;
198 [label="coma <= 0.5\nentropy = 0.8\nsamples = 3\nvalue = [0, 0, 0, 0, 0, 0, 0, 0, 0, 0, 0, 0, 0, 0\n0, 0, 0, 0, 0, 0, 0, 3, 1, 0, 0, 0, 0, 0\n0, 0, 0, 0, 0, 0, 0, 0, 0, 0, 0, 0, 0]"] ;
196 -> 198 ;
199 [label="entropy = 0.0\nsamples = 2\nvalue = [0, 0, 0, 0, 0, 0, 0, 0, 0, 0, 0, 0, 0, 0\n0, 0, 0, 0, 0, 0, 0, 3, 0, 0, 0, 0, 0, 0\n0, 0, 0, 0, 0, 0, 0, 0, 0, 0, 0, 0, 0]"] ;
198 -> 199 ;
200 [label="entropy = 0.0\nsamples = 1\nvalue = [0, 0, 0, 0, 0, 0, 0, 0, 0, 0, 0, 0, 0, 0\n0, 0, 0, 0, 0, 0, 0, 0, 1, 0, 0, 0, 0, 0\n0, 0, 0, 0, 0, 0, 0, 0, 0, 0, 0, 0, 0]"] ;
198 -> 200 ;
201 [label="entropy = 0.0\nsamples = 37\nvalue = [0, 0, 0, 0, 0, 0, 0, 0, 0, 0, 0, 0, 0, 0\n0, 0, 0, 0, 0, 0, 0, 0, 0, 0, 0, 54, 0, 0\n0, 0, 0, 0, 0, 0, 0, 0, 0, 0, 0, 0, 0]"] ;
179 -> 201 ;
202 [label="entropy = 0.0\nsamples = 38\nvalue = [0, 0, 0, 0, 0, 0, 0, 0, 0, 0, 0, 0, 0, 0\n0, 0, 0, 0, 0, 0, 0, 0, 0, 0, 0, 0, 0, 0\n0, 0, 0, 0, 0, 0, 0, 0, 0, 0, 0, 52, 0]"] ;
178 -> 202 ;
203 [label="yellowish_skin <= 0.5\nentropy = 1.0\nsamples = 77\nvalue = [0, 0, 0, 0, 0, 0, 60, 0, 0, 0, 0, 0, 0, 0\n0, 0, 0, 0, 0, 0, 63, 0, 0, 0, 0, 0, 0, 0\n0, 0, 0, 0, 0, 0, 0, 0, 0, 0, 0, 0, 0]"] ;
177 -> 203 ;
204 [label="breathlessness <= 0.5\nentropy = 0.2\nsamples = 40\nvalue = [0, 0, 0, 0, 0, 0, 60, 0, 0, 0, 0, 0, 0, 0\n0, 0, 0, 0, 0, 0, 2, 0, 0, 0, 0, 0, 0, 0\n0, 0, 0, 0, 0, 0, 0, 0, 0, 0, 0, 0, 0]"] ;
203 -> 204 ;
205 [label="mucoid_sputum <= 0.5\nentropy = 0.9\nsamples = 3\nvalue = [0, 0, 0, 0, 0, 0, 1, 0, 0, 0, 0, 0, 0, 0\n0, 0, 0, 0, 0, 0, 2, 0, 0, 0, 0, 0, 0, 0\n0, 0, 0, 0, 0, 0, 0, 0, 0, 0, 0, 0, 0]"] ;
204 -> 205 ;
206 [label="entropy = 0.0\nsamples = 2\nvalue = [0, 0, 0, 0, 0, 0, 0, 0, 0, 0, 0, 0, 0, 0\n0, 0, 0, 0, 0, 0, 2, 0, 0, 0, 0, 0, 0, 0\n0, 0, 0, 0, 0, 0, 0, 0, 0, 0, 0, 0, 0]"] ;
205 -> 206 ;
207 [label="entropy = 0.0\nsamples = 1\nvalue = [0, 0, 0, 0, 0, 0, 1, 0, 0, 0, 0, 0, 0, 0\n0, 0, 0, 0, 0, 0, 0, 0, 0, 0, 0, 0, 0, 0\n0, 0, 0, 0, 0, 0, 0, 0, 0, 0, 0, 0, 0]"] ;
205 -> 207 ;
208 [label="entropy = 0.0\nsamples = 37\nvalue = [0, 0, 0, 0, 0, 0, 59, 0, 0, 0, 0, 0, 0, 0\n0, 0, 0, 0, 0, 0, 0, 0, 0, 0, 0, 0, 0, 0\n0, 0, 0, 0, 0, 0, 0, 0, 0, 0, 0, 0, 0]"] ;
204 -> 208 ;
209 [label="entropy = 0.0\nsamples = 37\nvalue = [0, 0, 0, 0, 0, 0, 0, 0, 0, 0, 0, 0, 0, 0\n0, 0, 0, 0, 0, 0, 61, 0, 0, 0, 0, 0, 0, 0\n0, 0, 0, 0, 0, 0, 0, 0, 0, 0, 0, 0, 0]"] ;
203 -> 209 ;
210 [label="yellow_urine <= 0.5\nentropy = 2.1\nsamples = 202\nvalue = [0, 0, 0, 0, 0, 0, 0, 0, 86, 77, 0, 0, 0, 0\n74, 86, 0, 0, 0, 4, 0, 0, 0, 0, 0, 0, 0, 0\n0, 0, 0, 0, 0, 0, 0, 0, 0, 0, 0, 0, 0]"] ;
4 -> 210 ;
211 [label="mild_fever <= 0.5\nentropy = 2.0\nsamples = 200\nvalue = [0, 0, 0, 0, 0, 0, 0, 0, 86, 77, 0, 0, 0, 0\n74, 86, 0, 0, 0, 0, 0, 0, 0, 0, 0, 0, 0, 0\n0, 0, 0, 0, 0, 0, 0, 0, 0, 0, 0, 0, 0]"] ;
210 -> 211 ;
212 [label="spotting_ urination <= 0.5\nentropy = 1.6\nsamples = 145\nvalue = [0, 0, 0, 0, 0, 0, 0, 0, 2, 77, 0, 0, 0, 0\n74, 86, 0, 0, 0, 0, 0, 0, 0, 0, 0, 0, 0, 0\n0, 0, 0, 0, 0, 0, 0, 0, 0, 0, 0, 0, 0]"] ;
211 -> 212 ;
213 [label="yellowing_of_eyes <= 0.5\nentropy = 1.2\nsamples = 101\nvalue = [0, 0, 0, 0, 0, 0, 0, 0, 2, 77, 0, 0, 0, 0\n4, 86, 0, 0, 0, 0, 0, 0, 0, 0, 0, 0, 0, 0\n0, 0, 0, 0, 0, 0, 0, 0, 0, 0, 0, 0, 0]"] ;
212 -> 213 ;
214 [label="stomach_pain <= 0.5\nentropy = 0.6\nsamples = 61\nvalue = [0, 0, 0, 0, 0, 0, 0, 0, 2, 4, 0, 0, 0, 0\n4, 86, 0, 0, 0, 0, 0, 0, 0, 0, 0, 0, 0, 0\n0, 0, 0, 0, 0, 0, 0, 0, 0, 0, 0, 0, 0]"] ;
213 -> 214 ;
215 [label="muscle_wasting <= 0.5\nentropy = 0.4\nsamples = 58\nvalue = [0, 0, 0, 0, 0, 0, 0, 0, 2, 4, 0, 0, 0, 0\n0, 86, 0, 0, 0, 0, 0, 0, 0, 0, 0, 0, 0, 0\n0, 0, 0, 0, 0, 0, 0, 0, 0, 0, 0, 0, 0]"] ;
214 -> 215 ;
216 [label="abdominal_pain <= 0.5\nentropy = 0.4\nsamples = 56\nvalue = [0, 0, 0, 0, 0, 0, 0, 0, 2, 4, 0, 0, 0, 0\n0, 82, 0, 0, 0, 0, 0, 0, 0, 0, 0, 0, 0, 0\n0, 0, 0, 0, 0, 0, 0, 0, 0, 0, 0, 0, 0]"] ;
215 -> 216 ;
217 [label="nodal_skin_eruptions <= 0.5\nentropy = 0.2\nsamples = 53\nvalue = [0, 0, 0, 0, 0, 0, 0, 0, 2, 0, 0, 0, 0, 0\n0, 82, 0, 0, 0, 0, 0, 0, 0, 0, 0, 0, 0, 0\n0, 0, 0, 0, 0, 0, 0, 0, 0, 0, 0, 0, 0]"] ;
216 -> 217 ;
218 [label="malaise <= 0.5\nentropy = 0.8\nsamples = 5\nvalue = [0, 0, 0, 0, 0, 0, 0, 0, 2, 0, 0, 0, 0, 0\n0, 6, 0, 0, 0, 0, 0, 0, 0, 0, 0, 0, 0, 0\n0, 0, 0, 0, 0, 0, 0, 0, 0, 0, 0, 0, 0]"] ;
217 -> 218 ;
219 [label="entropy = 0.0\nsamples = 3\nvalue = [0, 0, 0, 0, 0, 0, 0, 0, 0, 0, 0, 0, 0, 0\n0, 6, 0, 0, 0, 0, 0, 0, 0, 0, 0, 0, 0, 0\n0, 0, 0, 0, 0, 0, 0, 0, 0, 0, 0, 0, 0]"] ;
218 -> 219 ;
220 [label="entropy = 0.0\nsamples = 2\nvalue = [0, 0, 0, 0, 0, 0, 0, 0, 2, 0, 0, 0, 0, 0\n0, 0, 0, 0, 0, 0, 0, 0, 0, 0, 0, 0, 0, 0\n0, 0, 0, 0, 0, 0, 0, 0, 0, 0, 0, 0, 0]"] ;
218 -> 220 ;
221 [label="entropy = 0.0\nsamples = 48\nvalue = [0, 0, 0, 0, 0, 0, 0, 0, 0, 0, 0, 0, 0, 0\n0, 76, 0, 0, 0, 0, 0, 0, 0, 0, 0, 0, 0, 0\n0, 0, 0, 0, 0, 0, 0, 0, 0, 0, 0, 0, 0]"] ;
217 -> 221 ;
222 [label="entropy = 0.0\nsamples = 3\nvalue = [0, 0, 0, 0, 0, 0, 0, 0, 0, 4, 0, 0, 0, 0\n0, 0, 0, 0, 0, 0, 0, 0, 0, 0, 0, 0, 0, 0\n0, 0, 0, 0, 0, 0, 0, 0, 0, 0, 0, 0, 0]"] ;
216 -> 222 ;
223 [label="entropy = 0.0\nsamples = 2\nvalue = [0, 0, 0, 0, 0, 0, 0, 0, 0, 0, 0, 0, 0, 0\n0, 4, 0, 0, 0, 0, 0, 0, 0, 0, 0, 0, 0, 0\n0, 0, 0, 0, 0, 0, 0, 0, 0, 0, 0, 0, 0]"] ;
215 -> 223 ;
224 [label="entropy = 0.0\nsamples = 3\nvalue = [0, 0, 0, 0, 0, 0, 0, 0, 0, 0, 0, 0, 0, 0\n4, 0, 0, 0, 0, 0, 0, 0, 0, 0, 0, 0, 0, 0\n0, 0, 0, 0, 0, 0, 0, 0, 0, 0, 0, 0, 0]"] ;
214 -> 224 ;
225 [label="entropy = 0.0\nsamples = 40\nvalue = [0, 0, 0, 0, 0, 0, 0, 0, 0, 73, 0, 0, 0, 0\n0, 0, 0, 0, 0, 0, 0, 0, 0, 0, 0, 0, 0, 0\n0, 0, 0, 0, 0, 0, 0, 0, 0, 0, 0, 0, 0]"] ;
213 -> 225 ;
226 [label="entropy = 0.0\nsamples = 44\nvalue = [0, 0, 0, 0, 0, 0, 0, 0, 0, 0, 0, 0, 0, 0\n70, 0, 0, 0, 0, 0, 0, 0, 0, 0, 0, 0, 0, 0\n0, 0, 0, 0, 0, 0, 0, 0, 0, 0, 0, 0, 0]"] ;
212 -> 226 ;
227 [label="entropy = 0.0\nsamples = 55\nvalue = [0, 0, 0, 0, 0, 0, 0, 0, 84, 0, 0, 0, 0, 0\n0, 0, 0, 0, 0, 0, 0, 0, 0, 0, 0, 0, 0, 0\n0, 0, 0, 0, 0, 0, 0, 0, 0, 0, 0, 0, 0]"] ;
211 -> 227 ;
228 [label="entropy = 0.0\nsamples = 2\nvalue = [0, 0, 0, 0, 0, 0, 0, 0, 0, 0, 0, 0, 0, 0\n0, 0, 0, 0, 0, 4, 0, 0, 0, 0, 0, 0, 0, 0\n0, 0, 0, 0, 0, 0, 0, 0, 0, 0, 0, 0, 0]"] ;
210 -> 228 ;
229 [label="diarrhoea <= 0.5\nentropy = 2.0\nsamples = 166\nvalue = [0, 0, 0, 0, 0, 0, 0, 0, 0, 0, 0, 0, 0, 0\n0, 0, 0, 0, 0, 51, 0, 57, 76, 0, 0, 0, 0, 0\n1, 0, 0, 0, 0, 0, 0, 0, 0, 0, 0, 0, 64]"] ;
3 -> 229 ;
230 [label="lethargy <= 0.5\nentropy = 1.7\nsamples = 121\nvalue = [0, 0, 0, 0, 0, 0, 0, 0, 0, 0, 0, 0, 0, 0\n0, 0, 0, 0, 0, 51, 0, 57, 76, 0, 0, 0, 0, 0\n1, 0, 0, 0, 0, 0, 0, 0, 0, 0, 0, 0, 2]"] ;
229 -> 230 ;
231 [label="coma <= 0.5\nentropy = 1.1\nsamples = 86\nvalue = [0, 0, 0, 0, 0, 0, 0, 0, 0, 0, 0, 0, 0, 0\n0, 0, 0, 0, 0, 0, 0, 57, 76, 0, 0, 0, 0, 0\n1, 0, 0, 0, 0, 0, 0, 0, 0, 0, 0, 0, 2]"] ;
230 -> 231 ;
232 [label="muscle_pain <= 0.5\nentropy = 0.3\nsamples = 42\nvalue = [0, 0, 0, 0, 0, 0, 0, 0, 0, 0, 0, 0, 0, 0\n0, 0, 0, 0, 0, 0, 0, 57, 0, 0, 0, 0, 0, 0\n1, 0, 0, 0, 0, 0, 0, 0, 0, 0, 0, 0, 2]"] ;
231 -> 232 ;
233 [label="shivering <= 0.5\nentropy = 0.1\nsamples = 40\nvalue = [0, 0, 0, 0, 0, 0, 0, 0, 0, 0, 0, 0, 0, 0\n0, 0, 0, 0, 0, 0, 0, 57, 0, 0, 0, 0, 0, 0\n1, 0, 0, 0, 0, 0, 0, 0, 0, 0, 0, 0, 0]"] ;
232 -> 233 ;
234 [label="yellowish_skin <= 0.5\nentropy = 0.1\nsamples = 35\nvalue = [0, 0, 0, 0, 0, 0, 0, 0, 0, 0, 0, 0, 0, 0\n0, 0, 0, 0, 0, 0, 0, 48, 0, 0, 0, 0, 0, 0\n1, 0, 0, 0, 0, 0, 0, 0, 0, 0, 0, 0, 0]"] ;
233 -> 234 ;
235 [label="entropy = 0.0\nsamples = 2\nvalue = [0, 0, 0, 0, 0, 0, 0, 0, 0, 0, 0, 0, 0, 0\n0, 0, 0, 0, 0, 0, 0, 2, 0, 0, 0, 0, 0, 0\n0, 0, 0, 0, 0, 0, 0, 0, 0, 0, 0, 0, 0]"] ;
234 -> 235 ;
236 [label="loss_of_appetite <= 0.5\nentropy = 0.1\nsamples = 33\nvalue = [0, 0, 0, 0, 0, 0, 0, 0, 0, 0, 0, 0, 0, 0\n0, 0, 0, 0, 0, 0, 0, 46, 0, 0, 0, 0, 0, 0\n1, 0, 0, 0, 0, 0, 0, 0, 0, 0, 0, 0, 0]"] ;
234 -> 236 ;
237 [label="high_fever <= 0.5\nentropy = 0.8\nsamples = 3\nvalue = [0, 0, 0, 0, 0, 0, 0, 0, 0, 0, 0, 0, 0, 0\n0, 0, 0, 0, 0, 0, 0, 3, 0, 0, 0, 0, 0, 0\n1, 0, 0, 0, 0, 0, 0, 0, 0, 0, 0, 0, 0]"] ;
236 -> 237 ;
238 [label="entropy = 0.0\nsamples = 2\nvalue = [0, 0, 0, 0, 0, 0, 0, 0, 0, 0, 0, 0, 0, 0\n0, 0, 0, 0, 0, 0, 0, 3, 0, 0, 0, 0, 0, 0\n0, 0, 0, 0, 0, 0, 0, 0, 0, 0, 0, 0, 0]"] ;
237 -> 238 ;
239 [label="entropy = 0.0\nsamples = 1\nvalue = [0, 0, 0, 0, 0, 0, 0, 0, 0, 0, 0, 0, 0, 0\n0, 0, 0, 0, 0, 0, 0, 0, 0, 0, 0, 0, 0, 0\n1, 0, 0, 0, 0, 0, 0, 0, 0, 0, 0, 0, 0]"] ;
237 -> 239 ;
240 [label="entropy = 0.0\nsamples = 30\nvalue = [0, 0, 0, 0, 0, 0, 0, 0, 0, 0, 0, 0, 0, 0\n0, 0, 0, 0, 0, 0, 0, 43, 0, 0, 0, 0, 0, 0\n0, 0, 0, 0, 0, 0, 0, 0, 0, 0, 0, 0, 0]"] ;
236 -> 240 ;
241 [label="entropy = 0.0\nsamples = 5\nvalue = [0, 0, 0, 0, 0, 0, 0, 0, 0, 0, 0, 0, 0, 0\n0, 0, 0, 0, 0, 0, 0, 9, 0, 0, 0, 0, 0, 0\n0, 0, 0, 0, 0, 0, 0, 0, 0, 0, 0, 0, 0]"] ;
233 -> 241 ;
242 [label="entropy = 0.0\nsamples = 2\nvalue = [0, 0, 0, 0, 0, 0, 0, 0, 0, 0, 0, 0, 0, 0\n0, 0, 0, 0, 0, 0, 0, 0, 0, 0, 0, 0, 0, 0\n0, 0, 0, 0, 0, 0, 0, 0, 0, 0, 0, 0, 2]"] ;
232 -> 242 ;
243 [label="entropy = 0.0\nsamples = 44\nvalue = [0, 0, 0, 0, 0, 0, 0, 0, 0, 0, 0, 0, 0, 0\n0, 0, 0, 0, 0, 0, 0, 0, 76, 0, 0, 0, 0, 0\n0, 0, 0, 0, 0, 0, 0, 0, 0, 0, 0, 0, 0]"] ;
231 -> 243 ;
244 [label="entropy = 0.0\nsamples = 35\nvalue = [0, 0, 0, 0, 0, 0, 0, 0, 0, 0, 0, 0, 0, 0\n0, 0, 0, 0, 0, 51, 0, 0, 0, 0, 0, 0, 0, 0\n0, 0, 0, 0, 0, 0, 0, 0, 0, 0, 0, 0, 0]"] ;
230 -> 244 ;
245 [label="entropy = 0.0\nsamples = 45\nvalue = [0, 0, 0, 0, 0, 0, 0, 0, 0, 0, 0, 0, 0, 0\n0, 0, 0, 0, 0, 0, 0, 0, 0, 0, 0, 0, 0, 0\n0, 0, 0, 0, 0, 0, 0, 0, 0, 0, 0, 0, 62]"] ;
229 -> 245 ;
246 [label="headache <= 0.5\nentropy = 3.9\nsamples = 370\nvalue = [6, 6, 6, 6, 72, 7, 2, 0, 4, 6, 81, 63, 0, 1\n3, 4, 2, 8, 10, 0, 7, 6, 2, 0, 0, 5, 0, 9\n0, 69, 2, 4, 7, 3, 68, 4, 1, 72, 5, 6, 5]"] ;
2 -> 246 ;
247 [label="diarrhoea <= 0.5\nentropy = 3.6\nsamples = 175\nvalue = [0, 6, 6, 6, 72, 7, 2, 0, 0, 6, 3, 0, 0, 1\n3, 4, 2, 8, 10, 0, 7, 6, 2, 0, 0, 0, 0, 9\n0, 1, 0, 4, 0, 3, 68, 4, 1, 4, 5, 6, 5]"] ;
246 -> 247 ;
248 [label="chest_pain <= 0.5\nentropy = 3.4\nsamples = 163\nvalue = [0, 6, 6, 6, 72, 7, 2, 0, 0, 6, 3, 0, 0, 1\n3, 4, 2, 0, 10, 0, 7, 6, 2, 0, 0, 0, 0, 9\n0, 0, 0, 4, 0, 3, 68, 4, 1, 0, 5, 6, 0]"] ;
247 -> 248 ;
249 [label="nodal_skin_eruptions <= 0.5\nentropy = 3.2\nsamples = 111\nvalue = [0, 6, 6, 6, 72, 7, 2, 0, 0, 6, 0, 0, 0, 1\n3, 4, 0, 0, 0, 0, 7, 6, 2, 0, 0, 0, 0, 9\n0, 0, 0, 4, 0, 3, 0, 4, 0, 0, 5, 6, 0]"] ;
248 -> 249 ;
250 [label="painful_walking <= 0.5\nentropy = 1.2\nsamples = 56\nvalue = [0, 0, 1, 0, 69, 2, 0, 0, 0, 1, 0, 0, 0, 1\n0, 0, 0, 0, 0, 0, 1, 0, 0, 0, 0, 0, 0, 3\n0, 0, 0, 0, 0, 1, 0, 1, 0, 0, 0, 3, 0]"] ;
249 -> 250 ;
251 [label="swollen_legs <= 0.5\nentropy = 1.0\nsamples = 55\nvalue = [0, 0, 1, 0, 69, 0, 0, 0, 0, 1, 0, 0, 0, 1\n0, 0, 0, 0, 0, 0, 1, 0, 0, 0, 0, 0, 0, 3\n0, 0, 0, 0, 0, 1, 0, 1, 0, 0, 0, 3, 0]"] ;
250 -> 251 ;
252 [label="silver_like_dusting <= 0.5\nentropy = 0.8\nsamples = 53\nvalue = [0, 0, 1, 0, 69, 0, 0, 0, 0, 1, 0, 0, 0, 1\n0, 0, 0, 0, 0, 0, 1, 0, 0, 0, 0, 0, 0, 3\n0, 0, 0, 0, 0, 1, 0, 1, 0, 0, 0, 0, 0]"] ;
251 -> 252 ;
253 [label="watering_from_eyes <= 0.5\nentropy = 0.7\nsamples = 52\nvalue = [0, 0, 1, 0, 69, 0, 0, 0, 0, 1, 0, 0, 0, 1\n0, 0, 0, 0, 0, 0, 1, 0, 0, 0, 0, 0, 0, 3\n0, 0, 0, 0, 0, 1, 0, 0, 0, 0, 0, 0, 0]"] ;
252 -> 253 ;
254 [label="yellow_crust_ooze <= 0.5\nentropy = 2.1\nsamples = 11\nvalue = [0, 0, 1, 0, 9, 0, 0, 0, 0, 1, 0, 0, 0, 1\n0, 0, 0, 0, 0, 0, 1, 0, 0, 0, 0, 0, 0, 3\n0, 0, 0, 0, 0, 1, 0, 0, 0, 0, 0, 0, 0]"] ;
253 -> 254 ;
255 [label="shivering <= 0.5\nentropy = 1.8\nsamples = 10\nvalue = [0, 0, 1, 0, 9, 0, 0, 0, 0, 1, 0, 0, 0, 1\n0, 0, 0, 0, 0, 0, 1, 0, 0, 0, 0, 0, 0, 0\n0, 0, 0, 0, 0, 1, 0, 0, 0, 0, 0, 0, 0]"] ;
254 -> 255 ;
256 [label="loss_of_appetite <= 0.5\nentropy = 2.3\nsamples = 5\nvalue = [0, 0, 1, 0, 0, 0, 0, 0, 0, 1, 0, 0, 0, 1\n0, 0, 0, 0, 0, 0, 1, 0, 0, 0, 0, 0, 0, 0\n0, 0, 0, 0, 0, 1, 0, 0, 0, 0, 0, 0, 0]"] ;
255 -> 256 ;
257 [label="bloody_stool <= 0.5\nentropy = 1.0\nsamples = 2\nvalue = [0, 0, 1, 0, 0, 0, 0, 0, 0, 0, 0, 0, 0, 1\n0, 0, 0, 0, 0, 0, 0, 0, 0, 0, 0, 0, 0, 0\n0, 0, 0, 0, 0, 0, 0, 0, 0, 0, 0, 0, 0]"] ;
256 -> 257 ;
258 [label="entropy = 0.0\nsamples = 1\nvalue = [0, 0, 1, 0, 0, 0, 0, 0, 0, 0, 0, 0, 0, 0\n0, 0, 0, 0, 0, 0, 0, 0, 0, 0, 0, 0, 0, 0\n0, 0, 0, 0, 0, 0, 0, 0, 0, 0, 0, 0, 0]"] ;
257 -> 258 ;
259 [label="entropy = 0.0\nsamples = 1\nvalue = [0, 0, 0, 0, 0, 0, 0, 0, 0, 0, 0, 0, 0, 1\n0, 0, 0, 0, 0, 0, 0, 0, 0, 0, 0, 0, 0, 0\n0, 0, 0, 0, 0, 0, 0, 0, 0, 0, 0, 0, 0]"] ;
257 -> 259 ;
260 [label="yellowing_of_eyes <= 0.5\nentropy = 1.6\nsamples = 3\nvalue = [0, 0, 0, 0, 0, 0, 0, 0, 0, 1, 0, 0, 0, 0\n0, 0, 0, 0, 0, 0, 1, 0, 0, 0, 0, 0, 0, 0\n0, 0, 0, 0, 0, 1, 0, 0, 0, 0, 0, 0, 0]"] ;
256 -> 260 ;
261 [label="entropy = 0.0\nsamples = 1\nvalue = [0, 0, 0, 0, 0, 0, 0, 0, 0, 0, 0, 0, 0, 0\n0, 0, 0, 0, 0, 0, 0, 0, 0, 0, 0, 0, 0, 0\n0, 0, 0, 0, 0, 1, 0, 0, 0, 0, 0, 0, 0]"] ;
260 -> 261 ;
262 [label="family_history <= 0.5\nentropy = 1.0\nsamples = 2\nvalue = [0, 0, 0, 0, 0, 0, 0, 0, 0, 1, 0, 0, 0, 0\n0, 0, 0, 0, 0, 0, 1, 0, 0, 0, 0, 0, 0, 0\n0, 0, 0, 0, 0, 0, 0, 0, 0, 0, 0, 0, 0]"] ;
260 -> 262 ;
263 [label="entropy = 0.0\nsamples = 1\nvalue = [0, 0, 0, 0, 0, 0, 0, 0, 0, 1, 0, 0, 0, 0\n0, 0, 0, 0, 0, 0, 0, 0, 0, 0, 0, 0, 0, 0\n0, 0, 0, 0, 0, 0, 0, 0, 0, 0, 0, 0, 0]"] ;
262 -> 263 ;
264 [label="entropy = 0.0\nsamples = 1\nvalue = [0, 0, 0, 0, 0, 0, 0, 0, 0, 0, 0, 0, 0, 0\n0, 0, 0, 0, 0, 0, 1, 0, 0, 0, 0, 0, 0, 0\n0, 0, 0, 0, 0, 0, 0, 0, 0, 0, 0, 0, 0]"] ;
262 -> 264 ;
265 [label="entropy = 0.0\nsamples = 5\nvalue = [0, 0, 0, 0, 9, 0, 0, 0, 0, 0, 0, 0, 0, 0\n0, 0, 0, 0, 0, 0, 0, 0, 0, 0, 0, 0, 0, 0\n0, 0, 0, 0, 0, 0, 0, 0, 0, 0, 0, 0, 0]"] ;
255 -> 265 ;
266 [label="entropy = 0.0\nsamples = 1\nvalue = [0, 0, 0, 0, 0, 0, 0, 0, 0, 0, 0, 0, 0, 0\n0, 0, 0, 0, 0, 0, 0, 0, 0, 0, 0, 0, 0, 3\n0, 0, 0, 0, 0, 0, 0, 0, 0, 0, 0, 0, 0]"] ;
254 -> 266 ;
267 [label="entropy = 0.0\nsamples = 41\nvalue = [0, 0, 0, 0, 60, 0, 0, 0, 0, 0, 0, 0, 0, 0\n0, 0, 0, 0, 0, 0, 0, 0, 0, 0, 0, 0, 0, 0\n0, 0, 0, 0, 0, 0, 0, 0, 0, 0, 0, 0, 0]"] ;
253 -> 267 ;
268 [label="entropy = 0.0\nsamples = 1\nvalue = [0, 0, 0, 0, 0, 0, 0, 0, 0, 0, 0, 0, 0, 0\n0, 0, 0, 0, 0, 0, 0, 0, 0, 0, 0, 0, 0, 0\n0, 0, 0, 0, 0, 0, 0, 1, 0, 0, 0, 0, 0]"] ;
252 -> 268 ;
269 [label="entropy = 0.0\nsamples = 2\nvalue = [0, 0, 0, 0, 0, 0, 0, 0, 0, 0, 0, 0, 0, 0\n0, 0, 0, 0, 0, 0, 0, 0, 0, 0, 0, 0, 0, 0\n0, 0, 0, 0, 0, 0, 0, 0, 0, 0, 0, 3, 0]"] ;
251 -> 269 ;
270 [label="entropy = 0.0\nsamples = 1\nvalue = [0, 0, 0, 0, 0, 2, 0, 0, 0, 0, 0, 0, 0, 0\n0, 0, 0, 0, 0, 0, 0, 0, 0, 0, 0, 0, 0, 0\n0, 0, 0, 0, 0, 0, 0, 0, 0, 0, 0, 0, 0]"] ;
250 -> 270 ;
271 [label="itching <= 0.5\nentropy = 4.1\nsamples = 55\nvalue = [0, 6, 5, 6, 3, 5, 2, 0, 0, 5, 0, 0, 0, 0\n3, 4, 0, 0, 0, 0, 6, 6, 2, 0, 0, 0, 0, 6\n0, 0, 0, 4, 0, 2, 0, 3, 0, 0, 5, 3, 0]"] ;
249 -> 271 ;
272 [label="joint_pain <= 0.5\nentropy = 3.8\nsamples = 45\nvalue = [0, 6, 5, 6, 3, 5, 2, 0, 0, 0, 0, 0, 0, 0\n0, 0, 0, 0, 0, 0, 6, 6, 2, 0, 0, 0, 0, 6\n0, 0, 0, 4, 0, 2, 0, 3, 0, 0, 5, 3, 0]"] ;
271 -> 272 ;
273 [label="extra_marital_contacts <= 0.5\nentropy = 3.4\nsamples = 34\nvalue = [0, 6, 5, 6, 3, 5, 2, 0, 0, 0, 0, 0, 0, 0\n0, 0, 0, 0, 0, 0, 6, 0, 0, 0, 0, 0, 0, 6\n0, 0, 0, 0, 0, 2, 0, 0, 0, 0, 5, 3, 0]"] ;
272 -> 273 ;
274 [label="yellowing_of_eyes <= 0.5\nentropy = 3.2\nsamples = 29\nvalue = [0, 0, 5, 6, 3, 5, 2, 0, 0, 0, 0, 0, 0, 0\n0, 0, 0, 0, 0, 0, 6, 0, 0, 0, 0, 0, 0, 6\n0, 0, 0, 0, 0, 2, 0, 0, 0, 0, 5, 3, 0]"] ;
273 -> 274 ;
275 [label="continuous_sneezing <= 0.5\nentropy = 3.1\nsamples = 26\nvalue = [0, 0, 5, 6, 3, 5, 2, 0, 0, 0, 0, 0, 0, 0\n0, 0, 0, 0, 0, 0, 0, 0, 0, 0, 0, 0, 0, 6\n0, 0, 0, 0, 0, 2, 0, 0, 0, 0, 5, 3, 0]"] ;
274 -> 275 ;
276 [label="vomiting <= 0.5\nentropy = 2.9\nsamples = 23\nvalue = [0, 0, 5, 6, 0, 5, 2, 0, 0, 0, 0, 0, 0, 0\n0, 0, 0, 0, 0, 0, 0, 0, 0, 0, 0, 0, 0, 6\n0, 0, 0, 0, 0, 2, 0, 0, 0, 0, 5, 3, 0]"] ;
275 -> 276 ;
277 [label="red_sore_around_nose <= 0.5\nentropy = 2.5\nsamples = 17\nvalue = [0, 0, 5, 0, 0, 5, 2, 0, 0, 0, 0, 0, 0, 0\n0, 0, 0, 0, 0, 0, 0, 0, 0, 0, 0, 0, 0, 6\n0, 0, 0, 0, 0, 0, 0, 0, 0, 0, 5, 3, 0]"] ;
276 -> 277 ;
278 [label="blackheads <= 0.5\nentropy = 2.2\nsamples = 13\nvalue = [0, 0, 5, 0, 0, 5, 2, 0, 0, 0, 0, 0, 0, 0\n0, 0, 0, 0, 0, 0, 0, 0, 0, 0, 0, 0, 0, 0\n0, 0, 0, 0, 0, 0, 0, 0, 0, 0, 5, 3, 0]"] ;
277 -> 278 ;
279 [label="movement_stiffness <= 0.5\nentropy = 1.9\nsamples = 10\nvalue = [0, 0, 0, 0, 0, 5, 2, 0, 0, 0, 0, 0, 0, 0\n0, 0, 0, 0, 0, 0, 0, 0, 0, 0, 0, 0, 0, 0\n0, 0, 0, 0, 0, 0, 0, 0, 0, 0, 5, 3, 0]"] ;
278 -> 279 ;
280 [label="continuous_feel_of_urine <= 0.5\nentropy = 1.5\nsamples = 7\nvalue = [0, 0, 0, 0, 0, 0, 2, 0, 0, 0, 0, 0, 0, 0\n0, 0, 0, 0, 0, 0, 0, 0, 0, 0, 0, 0, 0, 0\n0, 0, 0, 0, 0, 0, 0, 0, 0, 0, 5, 3, 0]"] ;
279 -> 280 ;
281 [label="swollen_legs <= 0.5\nentropy = 1.0\nsamples = 5\nvalue = [0, 0, 0, 0, 0, 0, 2, 0, 0, 0, 0, 0, 0, 0\n0, 0, 0, 0, 0, 0, 0, 0, 0, 0, 0, 0, 0, 0\n0, 0, 0, 0, 0, 0, 0, 0, 0, 0, 0, 3, 0]"] ;
280 -> 281 ;
282 [label="entropy = 0.0\nsamples = 2\nvalue = [0, 0, 0, 0, 0, 0, 2, 0, 0, 0, 0, 0, 0, 0\n0, 0, 0, 0, 0, 0, 0, 0, 0, 0, 0, 0, 0, 0\n0, 0, 0, 0, 0, 0, 0, 0, 0, 0, 0, 0, 0]"] ;
281 -> 282 ;
283 [label="entropy = 0.0\nsamples = 3\nvalue = [0, 0, 0, 0, 0, 0, 0, 0, 0, 0, 0, 0, 0, 0\n0, 0, 0, 0, 0, 0, 0, 0, 0, 0, 0, 0, 0, 0\n0, 0, 0, 0, 0, 0, 0, 0, 0, 0, 0, 3, 0]"] ;
281 -> 283 ;
284 [label="entropy = 0.0\nsamples = 2\nvalue = [0, 0, 0, 0, 0, 0, 0, 0, 0, 0, 0, 0, 0, 0\n0, 0, 0, 0, 0, 0, 0, 0, 0, 0, 0, 0, 0, 0\n0, 0, 0, 0, 0, 0, 0, 0, 0, 0, 5, 0, 0]"] ;
280 -> 284 ;
285 [label="entropy = 0.0\nsamples = 3\nvalue = [0, 0, 0, 0, 0, 5, 0, 0, 0, 0, 0, 0, 0, 0\n0, 0, 0, 0, 0, 0, 0, 0, 0, 0, 0, 0, 0, 0\n0, 0, 0, 0, 0, 0, 0, 0, 0, 0, 0, 0, 0]"] ;
279 -> 285 ;
286 [label="entropy = 0.0\nsamples = 3\nvalue = [0, 0, 5, 0, 0, 0, 0, 0, 0, 0, 0, 0, 0, 0\n0, 0, 0, 0, 0, 0, 0, 0, 0, 0, 0, 0, 0, 0\n0, 0, 0, 0, 0, 0, 0, 0, 0, 0, 0, 0, 0]"] ;
278 -> 286 ;
287 [label="entropy = 0.0\nsamples = 4\nvalue = [0, 0, 0, 0, 0, 0, 0, 0, 0, 0, 0, 0, 0, 0\n0, 0, 0, 0, 0, 0, 0, 0, 0, 0, 0, 0, 0, 6\n0, 0, 0, 0, 0, 0, 0, 0, 0, 0, 0, 0, 0]"] ;
277 -> 287 ;
288 [label="history_of_alcohol_consumption <= 0.5\nentropy = 0.8\nsamples = 6\nvalue = [0, 0, 0, 6, 0, 0, 0, 0, 0, 0, 0, 0, 0, 0\n0, 0, 0, 0, 0, 0, 0, 0, 0, 0, 0, 0, 0, 0\n0, 0, 0, 0, 0, 2, 0, 0, 0, 0, 0, 0, 0]"] ;
276 -> 288 ;
289 [label="entropy = 0.0\nsamples = 2\nvalue = [0, 0, 0, 0, 0, 0, 0, 0, 0, 0, 0, 0, 0, 0\n0, 0, 0, 0, 0, 0, 0, 0, 0, 0, 0, 0, 0, 0\n0, 0, 0, 0, 0, 2, 0, 0, 0, 0, 0, 0, 0]"] ;
288 -> 289 ;
290 [label="entropy = 0.0\nsamples = 4\nvalue = [0, 0, 0, 6, 0, 0, 0, 0, 0, 0, 0, 0, 0, 0\n0, 0, 0, 0, 0, 0, 0, 0, 0, 0, 0, 0, 0, 0\n0, 0, 0, 0, 0, 0, 0, 0, 0, 0, 0, 0, 0]"] ;
288 -> 290 ;
291 [label="entropy = 0.0\nsamples = 3\nvalue = [0, 0, 0, 0, 3, 0, 0, 0, 0, 0, 0, 0, 0, 0\n0, 0, 0, 0, 0, 0, 0, 0, 0, 0, 0, 0, 0, 0\n0, 0, 0, 0, 0, 0, 0, 0, 0, 0, 0, 0, 0]"] ;
275 -> 291 ;
292 [label="entropy = 0.0\nsamples = 3\nvalue = [0, 0, 0, 0, 0, 0, 0, 0, 0, 0, 0, 0, 0, 0\n0, 0, 0, 0, 0, 0, 6, 0, 0, 0, 0, 0, 0, 0\n0, 0, 0, 0, 0, 0, 0, 0, 0, 0, 0, 0, 0]"] ;
274 -> 292 ;
293 [label="entropy = 0.0\nsamples = 5\nvalue = [0, 6, 0, 0, 0, 0, 0, 0, 0, 0, 0, 0, 0, 0\n0, 0, 0, 0, 0, 0, 0, 0, 0, 0, 0, 0, 0, 0\n0, 0, 0, 0, 0, 0, 0, 0, 0, 0, 0, 0, 0]"] ;
273 -> 293 ;
294 [label="yellowish_skin <= 0.5\nentropy = 1.9\nsamples = 11\nvalue = [0, 0, 0, 0, 0, 0, 0, 0, 0, 0, 0, 0, 0, 0\n0, 0, 0, 0, 0, 0, 0, 6, 2, 0, 0, 0, 0, 0\n0, 0, 0, 4, 0, 0, 0, 3, 0, 0, 0, 0, 0]"] ;
272 -> 294 ;
295 [label="neck_pain <= 0.5\nentropy = 1.0\nsamples = 5\nvalue = [0, 0, 0, 0, 0, 0, 0, 0, 0, 0, 0, 0, 0, 0\n0, 0, 0, 0, 0, 0, 0, 0, 0, 0, 0, 0, 0, 0\n0, 0, 0, 4, 0, 0, 0, 3, 0, 0, 0, 0, 0]"] ;
294 -> 295 ;
296 [label="entropy = 0.0\nsamples = 3\nvalue = [0, 0, 0, 0, 0, 0, 0, 0, 0, 0, 0, 0, 0, 0\n0, 0, 0, 0, 0, 0, 0, 0, 0, 0, 0, 0, 0, 0\n0, 0, 0, 0, 0, 0, 0, 3, 0, 0, 0, 0, 0]"] ;
295 -> 296 ;
297 [label="entropy = 0.0\nsamples = 2\nvalue = [0, 0, 0, 0, 0, 0, 0, 0, 0, 0, 0, 0, 0, 0\n0, 0, 0, 0, 0, 0, 0, 0, 0, 0, 0, 0, 0, 0\n0, 0, 0, 4, 0, 0, 0, 0, 0, 0, 0, 0, 0]"] ;
295 -> 297 ;
298 [label="coma <= 0.5\nentropy = 0.8\nsamples = 6\nvalue = [0, 0, 0, 0, 0, 0, 0, 0, 0, 0, 0, 0, 0, 0\n0, 0, 0, 0, 0, 0, 0, 6, 2, 0, 0, 0, 0, 0\n0, 0, 0, 0, 0, 0, 0, 0, 0, 0, 0, 0, 0]"] ;
294 -> 298 ;
299 [label="entropy = 0.0\nsamples = 4\nvalue = [0, 0, 0, 0, 0, 0, 0, 0, 0, 0, 0, 0, 0, 0\n0, 0, 0, 0, 0, 0, 0, 6, 0, 0, 0, 0, 0, 0\n0, 0, 0, 0, 0, 0, 0, 0, 0, 0, 0, 0, 0]"] ;
298 -> 299 ;
300 [label="entropy = 0.0\nsamples = 2\nvalue = [0, 0, 0, 0, 0, 0, 0, 0, 0, 0, 0, 0, 0, 0\n0, 0, 0, 0, 0, 0, 0, 0, 2, 0, 0, 0, 0, 0\n0, 0, 0, 0, 0, 0, 0, 0, 0, 0, 0, 0, 0]"] ;
298 -> 300 ;
301 [label="dischromic _patches <= 0.5\nentropy = 1.6\nsamples = 10\nvalue = [0, 0, 0, 0, 0, 0, 0, 0, 0, 5, 0, 0, 0, 0\n3, 4, 0, 0, 0, 0, 0, 0, 0, 0, 0, 0, 0, 0\n0, 0, 0, 0, 0, 0, 0, 0, 0, 0, 0, 0, 0]"] ;
271 -> 301 ;
302 [label="skin_rash <= 0.5\nentropy = 1.0\nsamples = 7\nvalue = [0, 0, 0, 0, 0, 0, 0, 0, 0, 5, 0, 0, 0, 0\n3, 0, 0, 0, 0, 0, 0, 0, 0, 0, 0, 0, 0, 0\n0, 0, 0, 0, 0, 0, 0, 0, 0, 0, 0, 0, 0]"] ;
301 -> 302 ;
303 [label="entropy = 0.0\nsamples = 4\nvalue = [0, 0, 0, 0, 0, 0, 0, 0, 0, 5, 0, 0, 0, 0\n0, 0, 0, 0, 0, 0, 0, 0, 0, 0, 0, 0, 0, 0\n0, 0, 0, 0, 0, 0, 0, 0, 0, 0, 0, 0, 0]"] ;
302 -> 303 ;
304 [label="entropy = 0.0\nsamples = 3\nvalue = [0, 0, 0, 0, 0, 0, 0, 0, 0, 0, 0, 0, 0, 0\n3, 0, 0, 0, 0, 0, 0, 0, 0, 0, 0, 0, 0, 0\n0, 0, 0, 0, 0, 0, 0, 0, 0, 0, 0, 0, 0]"] ;
302 -> 304 ;
305 [label="entropy = 0.0\nsamples = 3\nvalue = [0, 0, 0, 0, 0, 0, 0, 0, 0, 0, 0, 0, 0, 0\n0, 4, 0, 0, 0, 0, 0, 0, 0, 0, 0, 0, 0, 0\n0, 0, 0, 0, 0, 0, 0, 0, 0, 0, 0, 0, 0]"] ;
301 -> 305 ;
306 [label="fast_heart_rate <= 0.5\nentropy = 1.0\nsamples = 52\nvalue = [0, 0, 0, 0, 0, 0, 0, 0, 0, 0, 3, 0, 0, 0\n0, 0, 2, 0, 10, 0, 0, 0, 0, 0, 0, 0, 0, 0\n0, 0, 0, 0, 0, 0, 68, 0, 1, 0, 0, 0, 0]"] ;
248 -> 306 ;
307 [label="runny_nose <= 0.5\nentropy = 1.5\nsamples = 10\nvalue = [0, 0, 0, 0, 0, 0, 0, 0, 0, 0, 3, 0, 0, 0\n0, 0, 2, 0, 10, 0, 0, 0, 0, 0, 0, 0, 0, 0\n0, 0, 0, 0, 0, 0, 0, 0, 1, 0, 0, 0, 0]"] ;
306 -> 307 ;
308 [label="swelled_lymph_nodes <= 0.5\nentropy = 1.0\nsamples = 8\nvalue = [0, 0, 0, 0, 0, 0, 0, 0, 0, 0, 0, 0, 0, 0\n0, 0, 2, 0, 10, 0, 0, 0, 0, 0, 0, 0, 0, 0\n0, 0, 0, 0, 0, 0, 0, 0, 1, 0, 0, 0, 0]"] ;
307 -> 308 ;
309 [label="breathlessness <= 0.5\nentropy = 0.7\nsamples = 7\nvalue = [0, 0, 0, 0, 0, 0, 0, 0, 0, 0, 0, 0, 0, 0\n0, 0, 2, 0, 10, 0, 0, 0, 0, 0, 0, 0, 0, 0\n0, 0, 0, 0, 0, 0, 0, 0, 0, 0, 0, 0, 0]"] ;
308 -> 309 ;
310 [label="entropy = 0.0\nsamples = 1\nvalue = [0, 0, 0, 0, 0, 0, 0, 0, 0, 0, 0, 0, 0, 0\n0, 0, 2, 0, 0, 0, 0, 0, 0, 0, 0, 0, 0, 0\n0, 0, 0, 0, 0, 0, 0, 0, 0, 0, 0, 0, 0]"] ;
309 -> 310 ;
311 [label="entropy = 0.0\nsamples = 6\nvalue = [0, 0, 0, 0, 0, 0, 0, 0, 0, 0, 0, 0, 0, 0\n0, 0, 0, 0, 10, 0, 0, 0, 0, 0, 0, 0, 0, 0\n0, 0, 0, 0, 0, 0, 0, 0, 0, 0, 0, 0, 0]"] ;
309 -> 311 ;
312 [label="entropy = 0.0\nsamples = 1\nvalue = [0, 0, 0, 0, 0, 0, 0, 0, 0, 0, 0, 0, 0, 0\n0, 0, 0, 0, 0, 0, 0, 0, 0, 0, 0, 0, 0, 0\n0, 0, 0, 0, 0, 0, 0, 0, 1, 0, 0, 0, 0]"] ;
308 -> 312 ;
313 [label="entropy = 0.0\nsamples = 2\nvalue = [0, 0, 0, 0, 0, 0, 0, 0, 0, 0, 3, 0, 0, 0\n0, 0, 0, 0, 0, 0, 0, 0, 0, 0, 0, 0, 0, 0\n0, 0, 0, 0, 0, 0, 0, 0, 0, 0, 0, 0, 0]"] ;
307 -> 313 ;
314 [label="entropy = 0.0\nsamples = 42\nvalue = [0, 0, 0, 0, 0, 0, 0, 0, 0, 0, 0, 0, 0, 0\n0, 0, 0, 0, 0, 0, 0, 0, 0, 0, 0, 0, 0, 0\n0, 0, 0, 0, 0, 0, 68, 0, 0, 0, 0, 0, 0]"] ;
306 -> 314 ;
315 [label="mild_fever <= 0.5\nentropy = 1.7\nsamples = 12\nvalue = [0, 0, 0, 0, 0, 0, 0, 0, 0, 0, 0, 0, 0, 0\n0, 0, 0, 8, 0, 0, 0, 0, 0, 0, 0, 0, 0, 0\n0, 1, 0, 0, 0, 0, 0, 0, 0, 4, 0, 0, 5]"] ;
247 -> 315 ;
316 [label="nausea <= 0.5\nentropy = 1.2\nsamples = 8\nvalue = [0, 0, 0, 0, 0, 0, 0, 0, 0, 0, 0, 0, 0, 0\n0, 0, 0, 8, 0, 0, 0, 0, 0, 0, 0, 0, 0, 0\n0, 1, 0, 0, 0, 0, 0, 0, 0, 4, 0, 0, 0]"] ;
315 -> 316 ;
317 [label="entropy = 0.0\nsamples = 4\nvalue = [0, 0, 0, 0, 0, 0, 0, 0, 0, 0, 0, 0, 0, 0\n0, 0, 0, 8, 0, 0, 0, 0, 0, 0, 0, 0, 0, 0\n0, 0, 0, 0, 0, 0, 0, 0, 0, 0, 0, 0, 0]"] ;
316 -> 317 ;
318 [label="belly_pain <= 0.5\nentropy = 0.7\nsamples = 4\nvalue = [0, 0, 0, 0, 0, 0, 0, 0, 0, 0, 0, 0, 0, 0\n0, 0, 0, 0, 0, 0, 0, 0, 0, 0, 0, 0, 0, 0\n0, 1, 0, 0, 0, 0, 0, 0, 0, 4, 0, 0, 0]"] ;
316 -> 318 ;
319 [label="entropy = 0.0\nsamples = 1\nvalue = [0, 0, 0, 0, 0, 0, 0, 0, 0, 0, 0, 0, 0, 0\n0, 0, 0, 0, 0, 0, 0, 0, 0, 0, 0, 0, 0, 0\n0, 1, 0, 0, 0, 0, 0, 0, 0, 0, 0, 0, 0]"] ;
318 -> 319 ;
320 [label="entropy = 0.0\nsamples = 3\nvalue = [0, 0, 0, 0, 0, 0, 0, 0, 0, 0, 0, 0, 0, 0\n0, 0, 0, 0, 0, 0, 0, 0, 0, 0, 0, 0, 0, 0\n0, 0, 0, 0, 0, 0, 0, 0, 0, 4, 0, 0, 0]"] ;
318 -> 320 ;
321 [label="entropy = 0.0\nsamples = 4\nvalue = [0, 0, 0, 0, 0, 0, 0, 0, 0, 0, 0, 0, 0, 0\n0, 0, 0, 0, 0, 0, 0, 0, 0, 0, 0, 0, 0, 0\n0, 0, 0, 0, 0, 0, 0, 0, 0, 0, 0, 0, 5]"] ;
315 -> 321 ;
322 [label="malaise <= 0.5\nentropy = 2.4\nsamples = 195\nvalue = [6, 0, 0, 0, 0, 0, 0, 0, 4, 0, 78, 63, 0, 0\n0, 0, 0, 0, 0, 0, 0, 0, 0, 0, 0, 5, 0, 0\n0, 68, 2, 0, 7, 0, 0, 0, 0, 68, 0, 0, 0]"] ;
246 -> 322 ;
323 [label="constipation <= 0.5\nentropy = 1.9\nsamples = 110\nvalue = [6, 0, 0, 0, 0, 0, 0, 0, 0, 0, 4, 4, 0, 0\n0, 0, 0, 0, 0, 0, 0, 0, 0, 0, 0, 5, 0, 0\n0, 68, 2, 0, 7, 0, 0, 0, 0, 68, 0, 0, 0]"] ;
322 -> 323 ;
324 [label="nausea <= 0.5\nentropy = 1.8\nsamples = 67\nvalue = [6, 0, 0, 0, 0, 0, 0, 0, 0, 0, 4, 4, 0, 0\n0, 0, 0, 0, 0, 0, 0, 0, 0, 0, 0, 5, 0, 0\n0, 68, 2, 0, 7, 0, 0, 0, 0, 4, 0, 0, 0]"] ;
323 -> 324 ;
325 [label="swelled_lymph_nodes <= 0.5\nentropy = 1.7\nsamples = 8\nvalue = [0, 0, 0, 0, 0, 0, 0, 0, 0, 0, 4, 0, 0, 0\n0, 0, 0, 0, 0, 0, 0, 0, 0, 0, 0, 0, 0, 0\n0, 1, 2, 0, 7, 0, 0, 0, 0, 0, 0, 0, 0]"] ;
324 -> 325 ;
326 [label="visual_disturbances <= 0.5\nentropy = 1.2\nsamples = 6\nvalue = [0, 0, 0, 0, 0, 0, 0, 0, 0, 0, 0, 0, 0, 0\n0, 0, 0, 0, 0, 0, 0, 0, 0, 0, 0, 0, 0, 0\n0, 1, 2, 0, 7, 0, 0, 0, 0, 0, 0, 0, 0]"] ;
325 -> 326 ;
327 [label="muscle_pain <= 0.5\nentropy = 0.5\nsamples = 5\nvalue = [0, 0, 0, 0, 0, 0, 0, 0, 0, 0, 0, 0, 0, 0\n0, 0, 0, 0, 0, 0, 0, 0, 0, 0, 0, 0, 0, 0\n0, 1, 0, 0, 7, 0, 0, 0, 0, 0, 0, 0, 0]"] ;
326 -> 327 ;
328 [label="entropy = 0.0\nsamples = 4\nvalue = [0, 0, 0, 0, 0, 0, 0, 0, 0, 0, 0, 0, 0, 0\n0, 0, 0, 0, 0, 0, 0, 0, 0, 0, 0, 0, 0, 0\n0, 0, 0, 0, 7, 0, 0, 0, 0, 0, 0, 0, 0]"] ;
327 -> 328 ;
329 [label="entropy = 0.0\nsamples = 1\nvalue = [0, 0, 0, 0, 0, 0, 0, 0, 0, 0, 0, 0, 0, 0\n0, 0, 0, 0, 0, 0, 0, 0, 0, 0, 0, 0, 0, 0\n0, 1, 0, 0, 0, 0, 0, 0, 0, 0, 0, 0, 0]"] ;
327 -> 329 ;
330 [label="entropy = 0.0\nsamples = 1\nvalue = [0, 0, 0, 0, 0, 0, 0, 0, 0, 0, 0, 0, 0, 0\n0, 0, 0, 0, 0, 0, 0, 0, 0, 0, 0, 0, 0, 0\n0, 0, 2, 0, 0, 0, 0, 0, 0, 0, 0, 0, 0]"] ;
326 -> 330 ;
331 [label="entropy = 0.0\nsamples = 2\nvalue = [0, 0, 0, 0, 0, 0, 0, 0, 0, 0, 4, 0, 0, 0\n0, 0, 0, 0, 0, 0, 0, 0, 0, 0, 0, 0, 0, 0\n0, 0, 0, 0, 0, 0, 0, 0, 0, 0, 0, 0, 0]"] ;
325 -> 331 ;
332 [label="high_fever <= 0.5\nentropy = 1.2\nsamples = 59\nvalue = [6, 0, 0, 0, 0, 0, 0, 0, 0, 0, 0, 4, 0, 0\n0, 0, 0, 0, 0, 0, 0, 0, 0, 0, 0, 5, 0, 0\n0, 67, 0, 0, 0, 0, 0, 0, 0, 4, 0, 0, 0]"] ;
324 -> 332 ;
333 [label="drying_and_tingling_lips <= 0.5\nentropy = 1.6\nsamples = 11\nvalue = [6, 0, 0, 0, 0, 0, 0, 0, 0, 0, 0, 0, 0, 0\n0, 0, 0, 0, 0, 0, 0, 0, 0, 0, 0, 5, 0, 0\n0, 5, 0, 0, 0, 0, 0, 0, 0, 0, 0, 0, 0]"] ;
332 -> 333 ;
334 [label="shivering <= 0.5\nentropy = 1.0\nsamples = 7\nvalue = [6, 0, 0, 0, 0, 0, 0, 0, 0, 0, 0, 0, 0, 0\n0, 0, 0, 0, 0, 0, 0, 0, 0, 0, 0, 0, 0, 0\n0, 5, 0, 0, 0, 0, 0, 0, 0, 0, 0, 0, 0]"] ;
333 -> 334 ;
335 [label="joint_pain <= 0.5\nentropy = 1.0\nsamples = 6\nvalue = [6, 0, 0, 0, 0, 0, 0, 0, 0, 0, 0, 0, 0, 0\n0, 0, 0, 0, 0, 0, 0, 0, 0, 0, 0, 0, 0, 0\n0, 4, 0, 0, 0, 0, 0, 0, 0, 0, 0, 0, 0]"] ;
334 -> 335 ;
336 [label="entropy = 0.0\nsamples = 4\nvalue = [6, 0, 0, 0, 0, 0, 0, 0, 0, 0, 0, 0, 0, 0\n0, 0, 0, 0, 0, 0, 0, 0, 0, 0, 0, 0, 0, 0\n0, 0, 0, 0, 0, 0, 0, 0, 0, 0, 0, 0, 0]"] ;
335 -> 336 ;
337 [label="entropy = 0.0\nsamples = 2\nvalue = [0, 0, 0, 0, 0, 0, 0, 0, 0, 0, 0, 0, 0, 0\n0, 0, 0, 0, 0, 0, 0, 0, 0, 0, 0, 0, 0, 0\n0, 4, 0, 0, 0, 0, 0, 0, 0, 0, 0, 0, 0]"] ;
335 -> 337 ;
338 [label="entropy = 0.0\nsamples = 1\nvalue = [0, 0, 0, 0, 0, 0, 0, 0, 0, 0, 0, 0, 0, 0\n0, 0, 0, 0, 0, 0, 0, 0, 0, 0, 0, 0, 0, 0\n0, 1, 0, 0, 0, 0, 0, 0, 0, 0, 0, 0, 0]"] ;
334 -> 338 ;
339 [label="entropy = 0.0\nsamples = 4\nvalue = [0, 0, 0, 0, 0, 0, 0, 0, 0, 0, 0, 0, 0, 0\n0, 0, 0, 0, 0, 0, 0, 0, 0, 0, 0, 5, 0, 0\n0, 0, 0, 0, 0, 0, 0, 0, 0, 0, 0, 0, 0]"] ;
333 -> 339 ;
340 [label="abdominal_pain <= 0.5\nentropy = 0.6\nsamples = 48\nvalue = [0, 0, 0, 0, 0, 0, 0, 0, 0, 0, 0, 4, 0, 0\n0, 0, 0, 0, 0, 0, 0, 0, 0, 0, 0, 0, 0, 0\n0, 62, 0, 0, 0, 0, 0, 0, 0, 4, 0, 0, 0]"] ;
332 -> 340 ;
341 [label="back_pain <= 0.5\nentropy = 0.3\nsamples = 45\nvalue = [0, 0, 0, 0, 0, 0, 0, 0, 0, 0, 0, 4, 0, 0\n0, 0, 0, 0, 0, 0, 0, 0, 0, 0, 0, 0, 0, 0\n0, 62, 0, 0, 0, 0, 0, 0, 0, 0, 0, 0, 0]"] ;
340 -> 341 ;
342 [label="entropy = 0.0\nsamples = 43\nvalue = [0, 0, 0, 0, 0, 0, 0, 0, 0, 0, 0, 0, 0, 0\n0, 0, 0, 0, 0, 0, 0, 0, 0, 0, 0, 0, 0, 0\n0, 62, 0, 0, 0, 0, 0, 0, 0, 0, 0, 0, 0]"] ;
341 -> 342 ;
343 [label="entropy = 0.0\nsamples = 2\nvalue = [0, 0, 0, 0, 0, 0, 0, 0, 0, 0, 0, 4, 0, 0\n0, 0, 0, 0, 0, 0, 0, 0, 0, 0, 0, 0, 0, 0\n0, 0, 0, 0, 0, 0, 0, 0, 0, 0, 0, 0, 0]"] ;
341 -> 343 ;
344 [label="entropy = 0.0\nsamples = 3\nvalue = [0, 0, 0, 0, 0, 0, 0, 0, 0, 0, 0, 0, 0, 0\n0, 0, 0, 0, 0, 0, 0, 0, 0, 0, 0, 0, 0, 0\n0, 0, 0, 0, 0, 0, 0, 0, 0, 4, 0, 0, 0]"] ;
340 -> 344 ;
345 [label="entropy = 0.0\nsamples = 43\nvalue = [0, 0, 0, 0, 0, 0, 0, 0, 0, 0, 0, 0, 0, 0\n0, 0, 0, 0, 0, 0, 0, 0, 0, 0, 0, 0, 0, 0\n0, 0, 0, 0, 0, 0, 0, 0, 0, 64, 0, 0, 0]"] ;
323 -> 345 ;
346 [label="throat_irritation <= 0.5\nentropy = 1.2\nsamples = 85\nvalue = [0, 0, 0, 0, 0, 0, 0, 0, 4, 0, 74, 59, 0, 0\n0, 0, 0, 0, 0, 0, 0, 0, 0, 0, 0, 0, 0, 0\n0, 0, 0, 0, 0, 0, 0, 0, 0, 0, 0, 0, 0]"] ;
322 -> 346 ;
347 [label="itching <= 0.5\nentropy = 0.3\nsamples = 40\nvalue = [0, 0, 0, 0, 0, 0, 0, 0, 4, 0, 0, 59, 0, 0\n0, 0, 0, 0, 0, 0, 0, 0, 0, 0, 0, 0, 0, 0\n0, 0, 0, 0, 0, 0, 0, 0, 0, 0, 0, 0, 0]"] ;
346 -> 347 ;
348 [label="entropy = 0.0\nsamples = 37\nvalue = [0, 0, 0, 0, 0, 0, 0, 0, 0, 0, 0, 59, 0, 0\n0, 0, 0, 0, 0, 0, 0, 0, 0, 0, 0, 0, 0, 0\n0, 0, 0, 0, 0, 0, 0, 0, 0, 0, 0, 0, 0]"] ;
347 -> 348 ;
349 [label="entropy = 0.0\nsamples = 3\nvalue = [0, 0, 0, 0, 0, 0, 0, 0, 4, 0, 0, 0, 0, 0\n0, 0, 0, 0, 0, 0, 0, 0, 0, 0, 0, 0, 0, 0\n0, 0, 0, 0, 0, 0, 0, 0, 0, 0, 0, 0, 0]"] ;
347 -> 349 ;
350 [label="entropy = 0.0\nsamples = 45\nvalue = [0, 0, 0, 0, 0, 0, 0, 0, 0, 0, 74, 0, 0, 0\n0, 0, 0, 0, 0, 0, 0, 0, 0, 0, 0, 0, 0, 0\n0, 0, 0, 0, 0, 0, 0, 0, 0, 0, 0, 0, 0]"] ;
346 -> 350 ;
351 [label="acidity <= 0.5\nentropy = 1.6\nsamples = 129\nvalue = [0, 0, 0, 0, 0, 0, 0, 69, 0, 0, 0, 0, 0, 0\n0, 0, 0, 0, 0, 0, 0, 0, 0, 64, 0, 0, 78, 0\n0, 0, 0, 0, 0, 0, 0, 0, 0, 0, 0, 0, 0]"] ;
1 -> 351 ;
352 [label="depression <= 0.5\nentropy = 1.6\nsamples = 102\nvalue = [0, 0, 0, 0, 0, 0, 0, 52, 0, 0, 0, 0, 0, 0\n0, 0, 0, 0, 0, 0, 0, 0, 0, 56, 0, 0, 58, 0\n0, 0, 0, 0, 0, 0, 0, 0, 0, 0, 0, 0, 0]"] ;
351 -> 352 ;
353 [label="headache <= 0.5\nentropy = 1.0\nsamples = 70\nvalue = [0, 0, 0, 0, 0, 0, 0, 52, 0, 0, 0, 0, 0, 0\n0, 0, 0, 0, 0, 0, 0, 0, 0, 56, 0, 0, 0, 0\n0, 0, 0, 0, 0, 0, 0, 0, 0, 0, 0, 0, 0]"] ;
352 -> 353 ;
354 [label="lack_of_concentration <= 0.5\nentropy = 0.7\nsamples = 42\nvalue = [0, 0, 0, 0, 0, 0, 0, 52, 0, 0, 0, 0, 0, 0\n0, 0, 0, 0, 0, 0, 0, 0, 0, 11, 0, 0, 0, 0\n0, 0, 0, 0, 0, 0, 0, 0, 0, 0, 0, 0, 0]"] ;
353 -> 354 ;
355 [label="entropy = 0.0\nsamples = 36\nvalue = [0, 0, 0, 0, 0, 0, 0, 52, 0, 0, 0, 0, 0, 0\n0, 0, 0, 0, 0, 0, 0, 0, 0, 0, 0, 0, 0, 0\n0, 0, 0, 0, 0, 0, 0, 0, 0, 0, 0, 0, 0]"] ;
354 -> 355 ;
356 [label="entropy = 0.0\nsamples = 6\nvalue = [0, 0, 0, 0, 0, 0, 0, 0, 0, 0, 0, 0, 0, 0\n0, 0, 0, 0, 0, 0, 0, 0, 0, 11, 0, 0, 0, 0\n0, 0, 0, 0, 0, 0, 0, 0, 0, 0, 0, 0, 0]"] ;
354 -> 356 ;
357 [label="entropy = 0.0\nsamples = 28\nvalue = [0, 0, 0, 0, 0, 0, 0, 0, 0, 0, 0, 0, 0, 0\n0, 0, 0, 0, 0, 0, 0, 0, 0, 45, 0, 0, 0, 0\n0, 0, 0, 0, 0, 0, 0, 0, 0, 0, 0, 0, 0]"] ;
353 -> 357 ;
358 [label="entropy = 0.0\nsamples = 32\nvalue = [0, 0, 0, 0, 0, 0, 0, 0, 0, 0, 0, 0, 0, 0\n0, 0, 0, 0, 0, 0, 0, 0, 0, 0, 0, 0, 58, 0\n0, 0, 0, 0, 0, 0, 0, 0, 0, 0, 0, 0, 0]"] ;
352 -> 358 ;
359 [label="irritability <= 0.5\nentropy = 1.5\nsamples = 27\nvalue = [0, 0, 0, 0, 0, 0, 0, 17, 0, 0, 0, 0, 0, 0\n0, 0, 0, 0, 0, 0, 0, 0, 0, 8, 0, 0, 20, 0\n0, 0, 0, 0, 0, 0, 0, 0, 0, 0, 0, 0, 0]"] ;
351 -> 359 ;
360 [label="muscle_wasting <= 0.5\nentropy = 0.9\nsamples = 17\nvalue = [0, 0, 0, 0, 0, 0, 0, 17, 0, 0, 0, 0, 0, 0\n0, 0, 0, 0, 0, 0, 0, 0, 0, 8, 0, 0, 0, 0\n0, 0, 0, 0, 0, 0, 0, 0, 0, 0, 0, 0, 0]"] ;
359 -> 360 ;
361 [label="weakness_in_limbs <= 0.5\nentropy = 0.9\nsamples = 15\nvalue = [0, 0, 0, 0, 0, 0, 0, 14, 0, 0, 0, 0, 0, 0\n0, 0, 0, 0, 0, 0, 0, 0, 0, 8, 0, 0, 0, 0\n0, 0, 0, 0, 0, 0, 0, 0, 0, 0, 0, 0, 0]"] ;
360 -> 361 ;
362 [label="entropy = 0.0\nsamples = 6\nvalue = [0, 0, 0, 0, 0, 0, 0, 0, 0, 0, 0, 0, 0, 0\n0, 0, 0, 0, 0, 0, 0, 0, 0, 8, 0, 0, 0, 0\n0, 0, 0, 0, 0, 0, 0, 0, 0, 0, 0, 0, 0]"] ;
361 -> 362 ;
363 [label="entropy = 0.0\nsamples = 9\nvalue = [0, 0, 0, 0, 0, 0, 0, 14, 0, 0, 0, 0, 0, 0\n0, 0, 0, 0, 0, 0, 0, 0, 0, 0, 0, 0, 0, 0\n0, 0, 0, 0, 0, 0, 0, 0, 0, 0, 0, 0, 0]"] ;
361 -> 363 ;
364 [label="entropy = 0.0\nsamples = 2\nvalue = [0, 0, 0, 0, 0, 0, 0, 3, 0, 0, 0, 0, 0, 0\n0, 0, 0, 0, 0, 0, 0, 0, 0, 0, 0, 0, 0, 0\n0, 0, 0, 0, 0, 0, 0, 0, 0, 0, 0, 0, 0]"] ;
360 -> 364 ;
365 [label="entropy = 0.0\nsamples = 10\nvalue = [0, 0, 0, 0, 0, 0, 0, 0, 0, 0, 0, 0, 0, 0\n0, 0, 0, 0, 0, 0, 0, 0, 0, 0, 0, 0, 20, 0\n0, 0, 0, 0, 0, 0, 0, 0, 0, 0, 0, 0, 0]"] ;
359 -> 365 ;
366 [label="vomiting <= 0.5\nentropy = 2.0\nsamples = 205\nvalue = [0, 0, 0, 0, 0, 0, 0, 0, 0, 0, 0, 0, 85, 0\n0, 0, 0, 0, 0, 0, 0, 0, 0, 0, 79, 0, 0, 0\n83, 0, 0, 0, 0, 0, 0, 0, 84, 0, 0, 0, 0]"] ;
0 -> 366 [labeldistance=2.5, labelangle=-45, headlabel="False"] ;
367 [label="muscle_weakness <= 0.5\nentropy = 1.2\nsamples = 110\nvalue = [0, 0, 0, 0, 0, 0, 0, 0, 0, 0, 0, 0, 85, 0\n0, 0, 0, 0, 0, 0, 0, 0, 0, 0, 79, 0, 0, 0\n3, 0, 0, 0, 0, 0, 0, 0, 4, 0, 0, 0, 0]"] ;
366 -> 367 ;
368 [label="obesity <= 0.5\nentropy = 0.5\nsamples = 57\nvalue = [0, 0, 0, 0, 0, 0, 0, 0, 0, 0, 0, 0, 85, 0\n0, 0, 0, 0, 0, 0, 0, 0, 0, 0, 0, 0, 0, 0\n3, 0, 0, 0, 0, 0, 0, 0, 4, 0, 0, 0, 0]"] ;
367 -> 368 ;
369 [label="breathlessness <= 0.5\nentropy = 1.5\nsamples = 6\nvalue = [0, 0, 0, 0, 0, 0, 0, 0, 0, 0, 0, 0, 2, 0\n0, 0, 0, 0, 0, 0, 0, 0, 0, 0, 0, 0, 0, 0\n3, 0, 0, 0, 0, 0, 0, 0, 4, 0, 0, 0, 0]"] ;
368 -> 369 ;
370 [label="high_fever <= 0.5\nentropy = 1.0\nsamples = 4\nvalue = [0, 0, 0, 0, 0, 0, 0, 0, 0, 0, 0, 0, 2, 0\n0, 0, 0, 0, 0, 0, 0, 0, 0, 0, 0, 0, 0, 0\n3, 0, 0, 0, 0, 0, 0, 0, 0, 0, 0, 0, 0]"] ;
369 -> 370 ;
371 [label="entropy = 0.0\nsamples = 2\nvalue = [0, 0, 0, 0, 0, 0, 0, 0, 0, 0, 0, 0, 2, 0\n0, 0, 0, 0, 0, 0, 0, 0, 0, 0, 0, 0, 0, 0\n0, 0, 0, 0, 0, 0, 0, 0, 0, 0, 0, 0, 0]"] ;
370 -> 371 ;
372 [label="entropy = 0.0\nsamples = 2\nvalue = [0, 0, 0, 0, 0, 0, 0, 0, 0, 0, 0, 0, 0, 0\n0, 0, 0, 0, 0, 0, 0, 0, 0, 0, 0, 0, 0, 0\n3, 0, 0, 0, 0, 0, 0, 0, 0, 0, 0, 0, 0]"] ;
370 -> 372 ;
373 [label="entropy = 0.0\nsamples = 2\nvalue = [0, 0, 0, 0, 0, 0, 0, 0, 0, 0, 0, 0, 0, 0\n0, 0, 0, 0, 0, 0, 0, 0, 0, 0, 0, 0, 0, 0\n0, 0, 0, 0, 0, 0, 0, 0, 4, 0, 0, 0, 0]"] ;
369 -> 373 ;
374 [label="entropy = 0.0\nsamples = 51\nvalue = [0, 0, 0, 0, 0, 0, 0, 0, 0, 0, 0, 0, 83, 0\n0, 0, 0, 0, 0, 0, 0, 0, 0, 0, 0, 0, 0, 0\n0, 0, 0, 0, 0, 0, 0, 0, 0, 0, 0, 0, 0]"] ;
368 -> 374 ;
375 [label="entropy = 0.0\nsamples = 53\nvalue = [0, 0, 0, 0, 0, 0, 0, 0, 0, 0, 0, 0, 0, 0\n0, 0, 0, 0, 0, 0, 0, 0, 0, 0, 79, 0, 0, 0\n0, 0, 0, 0, 0, 0, 0, 0, 0, 0, 0, 0, 0]"] ;
367 -> 375 ;
376 [label="sweating <= 0.5\nentropy = 1.0\nsamples = 95\nvalue = [0, 0, 0, 0, 0, 0, 0, 0, 0, 0, 0, 0, 0, 0\n0, 0, 0, 0, 0, 0, 0, 0, 0, 0, 0, 0, 0, 0\n80, 0, 0, 0, 0, 0, 0, 0, 80, 0, 0, 0, 0]"] ;
366 -> 376 ;
377 [label="muscle_wasting <= 0.5\nentropy = 0.3\nsamples = 53\nvalue = [0, 0, 0, 0, 0, 0, 0, 0, 0, 0, 0, 0, 0, 0\n0, 0, 0, 0, 0, 0, 0, 0, 0, 0, 0, 0, 0, 0\n80, 0, 0, 0, 0, 0, 0, 0, 5, 0, 0, 0, 0]"] ;
376 -> 377 ;
378 [label="nodal_skin_eruptions <= 0.5\nentropy = 0.3\nsamples = 51\nvalue = [0, 0, 0, 0, 0, 0, 0, 0, 0, 0, 0, 0, 0, 0\n0, 0, 0, 0, 0, 0, 0, 0, 0, 0, 0, 0, 0, 0\n78, 0, 0, 0, 0, 0, 0, 0, 5, 0, 0, 0, 0]"] ;
377 -> 378 ;
379 [label="malaise <= 0.5\nentropy = 0.3\nsamples = 49\nvalue = [0, 0, 0, 0, 0, 0, 0, 0, 0, 0, 0, 0, 0, 0\n0, 0, 0, 0, 0, 0, 0, 0, 0, 0, 0, 0, 0, 0\n74, 0, 0, 0, 0, 0, 0, 0, 5, 0, 0, 0, 0]"] ;
378 -> 379 ;
380 [label="entropy = 0.0\nsamples = 46\nvalue = [0, 0, 0, 0, 0, 0, 0, 0, 0, 0, 0, 0, 0, 0\n0, 0, 0, 0, 0, 0, 0, 0, 0, 0, 0, 0, 0, 0\n74, 0, 0, 0, 0, 0, 0, 0, 0, 0, 0, 0, 0]"] ;
379 -> 380 ;
381 [label="entropy = 0.0\nsamples = 3\nvalue = [0, 0, 0, 0, 0, 0, 0, 0, 0, 0, 0, 0, 0, 0\n0, 0, 0, 0, 0, 0, 0, 0, 0, 0, 0, 0, 0, 0\n0, 0, 0, 0, 0, 0, 0, 0, 5, 0, 0, 0, 0]"] ;
379 -> 381 ;
382 [label="entropy = 0.0\nsamples = 2\nvalue = [0, 0, 0, 0, 0, 0, 0, 0, 0, 0, 0, 0, 0, 0\n0, 0, 0, 0, 0, 0, 0, 0, 0, 0, 0, 0, 0, 0\n4, 0, 0, 0, 0, 0, 0, 0, 0, 0, 0, 0, 0]"] ;
378 -> 382 ;
383 [label="entropy = 0.0\nsamples = 2\nvalue = [0, 0, 0, 0, 0, 0, 0, 0, 0, 0, 0, 0, 0, 0\n0, 0, 0, 0, 0, 0, 0, 0, 0, 0, 0, 0, 0, 0\n2, 0, 0, 0, 0, 0, 0, 0, 0, 0, 0, 0, 0]"] ;
377 -> 383 ;
384 [label="entropy = 0.0\nsamples = 42\nvalue = [0, 0, 0, 0, 0, 0, 0, 0, 0, 0, 0, 0, 0, 0\n0, 0, 0, 0, 0, 0, 0, 0, 0, 0, 0, 0, 0, 0\n0, 0, 0, 0, 0, 0, 0, 0, 75, 0, 0, 0, 0]"] ;
376 -> 384 ;
}